{"learner":{"attributes":{"scikit_learn":"{\"_estimator_type\": \"classifier\"}"},"feature_names":[],"feature_types":[],"gradient_booster":{"model":{"gbtree_model_param":{"num_parallel_tree":"1","num_trees":"100"},"iteration_indptr":[0,1,2,3,4,5,6,7,8,9,10,11,12,13,14,15,16,17,18,19,20,21,22,23,24,25,26,27,28,29,30,31,32,33,34,35,36,37,38,39,40,41,42,43,44,45,46,47,48,49,50,51,52,53,54,55,56,57,58,59,60,61,62,63,64,65,66,67,68,69,70,71,72,73,74,75,76,77,78,79,80,81,82,83,84,85,86,87,88,89,90,91,92,93,94,95,96,97,98,99,100],"tree_info":[0,0,0,0,0,0,0,0,0,0,0,0,0,0,0,0,0,0,0,0,0,0,0,0,0,0,0,0,0,0,0,0,0,0,0,0,0,0,0,0,0,0,0,0,0,0,0,0,0,0,0,0,0,0,0,0,0,0,0,0,0,0,0,0,0,0,0,0,0,0,0,0,0,0,0,0,0,0,0,0,0,0,0,0,0,0,0,0,0,0,0,0,0,0,0,0,0,0,0,0],"trees":[{"base_weights":[-0E0,3.3021467E0,-1.3295086E-2,-2.6495177E-2,1.6210107E0,8.309334E-2,-1.795307E-1,2.5811007E0,6.779731E-1,-1.1170096E0,9.812024E-2,-2.0407714E-1,3.0912197E-1,5.223944E-1,2.779153E0,1.6367868E-1,1.4240321E0,-1.3052088E0,-6.5506566E-1,1.3642451E-1,-3.7441647E-1,-1.9231962E-1,-1.1283135E0,1.5497283E0,-0E0,-0E0,9.533848E-1,2.8055317E0,-0E0,5.766907E-1,-2.2814132E-1,1.5953956E0,-0E0,-6.867089E-1,-0E0,1.5161148E-1,-1.051257E0,-1.5418966E-1,-5.4248315E-1,-1.107997E0,-1.8062127E-1,-0E0,-1.1366769E0,1.7525046E0,1.9915795E-1,4.0386546E-1,-4.1278645E-1,-0E0,1.0479021E0,2.83382E0,-0E0,-0E0,8.2684904E-1,-3.399221E-1,-0E0,1.6355826E0,-0E0,-7.317479E-1,-0E0,-9.7168934E-1,1.6773918E-1,-5.8134544E-1,-1.2351514E0,9.019212E-2,-3.96339E-1,-3.8599375E-1,-6.7714E-1,-1.2677368E0,-6.1742663E-1,-2.8017032E-1,-1.0307966E-1,1.9440209E0,4.297614E-1,-0E0,3.4068006E-1,-0E0,7.66271E-1,-6.177464E-1,-0E0,-0E0,2.8463516E0,-0E0,8.890461E-1,-4.1571182E-1,-0E0,-0E0,1.6601522E0,-0E0,-7.581667E-1,-1.2133635E0,-4.1151568E-1,1.8089493E-1,-1.1899929E0,-6.302028E-1,-0E0,-1.2468729E0,-0E0,2.9252046E-1,-2.82356E-1,-5.231135E-1,-3.4826628E-3,-0E0,-4.2953384E-1,-6.956347E-1,-0E0,-0E0,-1.2744827E0,-0E0,-6.616991E-1,7.484629E-1,-2.911962E-1,-2.3566686E-1,6.504296E-2,-0E0,1.972826E0,-0E0,6.298778E-1,-0E0,4.5426658E-1,-1.750072E-1,3.6059216E-1,8.792507E-1,-0E0,-6.569138E-1,-0E0,3.0450228E-1,-2.0560235E-1,9.853373E-1,-0E0,-4.5328236E-1,-0E0,-0E0,1.6845055E0],"categories":[],"categories_nodes":[],"categories_segments":[],"categories_sizes":[],"default_left":[0,0,0,0,0,0,0,0,0,0,0,0,0,0,0,0,0,0,0,0,0,0,0,0,0,0,0,0,0,0,0,0,0,0,0,0,0,0,0,0,0,0,0,0,0,0,0,0,0,0,0,0,0,0,0,0,0,0,0,0,0,0,0,0,0,0,0,0,0,0,0,0,0,0,0,0,0,0,0,0,0,0,0,0,0,0,0,0,0,0,0,0,0,0,0,0,0,0,0,0,0,0,0,0,0,0,0,0,0,0,0,0,0,0,0,0,0,0,0,0,0,0,0,0,0,0,0,0,0,0,0,0,0],"id":0,"left_children":[1,-1,3,5,7,9,11,13,15,17,19,21,23,25,27,29,31,-1,33,35,37,39,41,43,45,-1,47,49,-1,51,53,55,-1,57,-1,59,61,63,65,67,69,-1,-1,71,73,75,77,-1,-1,79,-1,-1,81,83,-1,85,-1,87,-1,89,91,93,95,97,99,101,103,105,107,109,111,113,115,-1,117,119,121,123,125,-1,-1,-1,127,129,-1,-1,131,-1,-1,-1,-1,-1,-1,-1,-1,-1,-1,-1,-1,-1,-1,-1,-1,-1,-1,-1,-1,-1,-1,-1,-1,-1,-1,-1,-1,-1,-1,-1,-1,-1,-1,-1,-1,-1,-1,-1,-1,-1,-1,-1,-1,-1,-1],"loss_changes":[3.5827166E3,0E0,1.73793E3,1.3535951E3,5.3418115E2,8.3780493E2,4.037146E2,7.925073E1,1.1392352E2,2.1691101E1,8.37948E2,3.3351917E2,6.0865326E2,1.2634108E1,1.9687988E1,4.0901215E1,2.8554352E1,0E0,5.5365143E0,7.6722815E2,1.2034122E2,3.2496033E2,3.9339905E0,6.378955E1,2.1655222E2,0E0,3.0914612E0,1.3931641E1,0E0,2.1489147E1,5.338226E0,1.0071899E1,0E0,4.396591E0,0E0,7.6209955E2,2.0900635E1,9.444889E1,2.7506836E1,3.6851501E0,2.3786523E2,0E0,0E0,3.5758545E1,3.6288269E0,8.969266E1,5.4285454E1,0E0,0E0,1.0900391E1,0E0,0E0,4.7306366E0,2.896698E0,0E0,5.816986E0,0E0,2.4596863E0,0E0,5.9055847E1,7.393677E2,5.854519E0,3.1108398E0,5.7701412E1,3.4313667E1,1.4700684E1,1.3903015E1,2.2408752E0,5.4681396E0,1.5258044E2,3.9628635E2,1.3289551E1,6.3138638E0,0E0,3.1142793E0,2.3322414E1,2.7685745E1,7.477173E0,1.4540319E1,0E0,0E0,0E0,5.58049E0,2.205863E0,0E0,0E0,3.9138794E0,0E0,0E0,0E0,0E0,0E0,0E0,0E0,0E0,0E0,0E0,0E0,0E0,0E0,0E0,0E0,0E0,0E0,0E0,0E0,0E0,0E0,0E0,0E0,0E0,0E0,0E0,0E0,0E0,0E0,0E0,0E0,0E0,0E0,0E0,0E0,0E0,0E0,0E0,0E0,0E0,0E0,0E0,0E0,0E0,0E0,0E0],"parents":[2147483647,0,0,2,2,3,3,4,4,5,5,6,6,7,7,8,8,9,9,10,10,11,11,12,12,13,13,14,14,15,15,16,16,18,18,19,19,20,20,21,21,22,22,23,23,24,24,26,26,27,27,29,29,30,30,31,31,33,33,35,35,36,36,37,37,38,38,39,39,40,40,43,43,44,44,45,45,46,46,49,49,52,52,53,53,55,55,57,57,59,59,60,60,61,61,62,62,63,63,64,64,65,65,66,66,67,67,68,68,69,69,70,70,71,71,72,72,74,74,75,75,76,76,77,77,78,78,82,82,83,83,86,86],"right_children":[2,-1,4,6,8,10,12,14,16,18,20,22,24,26,28,30,32,-1,34,36,38,40,42,44,46,-1,48,50,-1,52,54,56,-1,58,-1,60,62,64,66,68,70,-1,-1,72,74,76,78,-1,-1,80,-1,-1,82,84,-1,86,-1,88,-1,90,92,94,96,98,100,102,104,106,108,110,112,114,116,-1,118,120,122,124,126,-1,-1,-1,128,130,-1,-1,132,-1,-1,-1,-1,-1,-1,-1,-1,-1,-1,-1,-1,-1,-1,-1,-1,-1,-1,-1,-1,-1,-1,-1,-1,-1,-1,-1,-1,-1,-1,-1,-1,-1,-1,-1,-1,-1,-1,-1,-1,-1,-1,-1,-1,-1,-1],"split_conditions":[-1.7077905E0,3.3021467E0,2.364754E0,6.8011945E-1,6.371664E-1,-1.960058E0,1.964728E0,-5.4991454E-1,1.034681E0,-2.0088835E0,1.1790879E0,1.950042E0,-3.799522E-1,9.224973E-1,1.2822301E0,5.746087E-1,1.5728827E0,-1.3052088E0,1.5955317E0,1.950042E0,1.9097681E-1,-1.960058E0,-2.978664E0,1.6981645E0,4.0393376E-1,-0E0,-6.9023013E-1,1.0049965E0,-0E0,-8.4166443E-1,9.1075224E-1,2.9218705E0,-0E0,1.3650498E0,-0E0,-1.9387023E0,1.9992361E0,6.7341053E-1,1.428872E0,-2.0088835E0,-3.2375696E-1,-0E0,-1.1366769E0,5.6577884E-2,-8.8138735E-1,3.810922E-1,7.943002E-1,-0E0,1.0479021E0,-1.8510131E0,-0E0,-0E0,-1.426206E0,1.597333E0,-0E0,-1.8834409E0,-0E0,-1.1077588E0,-0E0,-1.992566E0,1.9867673E0,1.7152418E0,1.1101513E0,1.4350996E0,2.6660007E-1,-1.2655895E0,1.2499573E0,-2.3686535E0,-1.4951557E0,-1.6600223E0,2.1644218E-1,-1.7289591E0,4.6095455E-1,-0E0,-6.467529E-1,1.5259615E-1,2.0832217E0,1.0966511E0,9.166547E-1,-0E0,2.8463516E0,-0E0,2.4455562E0,1.2132555E0,-0E0,-0E0,-1.8652002E0,-0E0,-7.581667E-1,-1.2133635E0,-4.1151568E-1,1.8089493E-1,-1.1899929E0,-6.302028E-1,-0E0,-1.2468729E0,-0E0,2.9252046E-1,-2.82356E-1,-5.231135E-1,-3.4826628E-3,-0E0,-4.2953384E-1,-6.956347E-1,-0E0,-0E0,-1.2744827E0,-0E0,-6.616991E-1,7.484629E-1,-2.911962E-1,-2.3566686E-1,6.504296E-2,-0E0,1.972826E0,-0E0,6.298778E-1,-0E0,4.5426658E-1,-1.750072E-1,3.6059216E-1,8.792507E-1,-0E0,-6.569138E-1,-0E0,3.0450228E-1,-2.0560235E-1,9.853373E-1,-0E0,-4.5328236E-1,-0E0,-0E0,1.6845055E0],"split_indices":[23,0,0,0,6,3,0,23,24,3,24,3,6,1,13,7,7,0,13,3,7,3,18,14,7,0,21,7,0,23,9,14,0,25,0,2,3,6,24,3,23,0,0,7,18,24,24,0,0,3,0,0,11,20,0,3,0,15,0,2,2,20,24,14,23,3,8,19,23,23,24,2,1,0,15,23,12,2,7,0,0,0,6,2,0,0,19,0,0,0,0,0,0,0,0,0,0,0,0,0,0,0,0,0,0,0,0,0,0,0,0,0,0,0,0,0,0,0,0,0,0,0,0,0,0,0,0,0,0,0,0,0,0],"split_type":[0,0,0,0,0,0,0,0,0,0,0,0,0,0,0,0,0,0,0,0,0,0,0,0,0,0,0,0,0,0,0,0,0,0,0,0,0,0,0,0,0,0,0,0,0,0,0,0,0,0,0,0,0,0,0,0,0,0,0,0,0,0,0,0,0,0,0,0,0,0,0,0,0,0,0,0,0,0,0,0,0,0,0,0,0,0,0,0,0,0,0,0,0,0,0,0,0,0,0,0,0,0,0,0,0,0,0,0,0,0,0,0,0,0,0,0,0,0,0,0,0,0,0,0,0,0,0,0,0,0,0,0,0],"sum_hessian":[8.1586945E4,3.1724622E2,8.1269695E4,8.063438E4,6.3531757E2,4.6951617E4,3.368276E4,3.0095074E2,3.343668E2,5.633287E2,4.638829E4,3.2096738E4,1.5860249E3,3.403487E1,2.669159E2,2.130789E2,1.21287895E2,3.719083E2,1.9142035E2,4.293612E4,3.452167E3,3.1716166E4,3.8057172E2,3.0693265E2,1.2790923E3,1.6914299E1,1.7120571E1,2.6423434E2,2.681535E0,1.1386211E2,9.92168E1,1.058175E2,1.5470395E1,1.8502592E2,6.3944297E0,4.2410953E4,5.2516833E2,1.5282688E3,1.9238983E3,3.7747763E2,3.1338688E4,2.681535E0,3.7789017E2,2.578399E2,4.909272E1,6.4934406E2,6.297482E2,1.8564473E0,1.5264123E1,2.6052145E2,3.7128947E0,3.217842E1,8.1683685E1,8.5396576E1,1.3820219E1,1.0396105E2,1.8564473E0,1.6996808E2,1.5057851E1,5.8313074E2,4.1827824E4,1.7471233E2,3.5045602E2,7.4319775E2,7.85071E2,9.420439E2,9.818544E2,2.5742737E2,1.2005026E2,1.3654171E4,1.7684518E4,2.1452281E2,4.3317104E1,7.6320615E0,4.146066E1,3.234344E2,3.2590964E2,4.1790692E2,2.1184128E2,1.0313597E0,2.5949008E2,6.3944297E0,7.528925E1,7.0545E1,1.4851579E1,1.2376316E0,1.0272342E2,8.044605E0,1.6192346E2,3.8675986E2,1.9637088E2,4.14423E4,3.8552225E2,1.6192346E2,1.2788859E1,3.4571176E2,4.7442546E0,5.004157E2,2.4278206E2,5.7178577E2,2.1328517E2,1.0354851E2,8.384954E2,9.5854565E2,2.330873E1,1.4439036E0,2.5598346E2,4.3317103E0,1.1571855E2,1.2809486E2,1.3526075E4,9.918173E3,7.7663447E3,3.094079E0,2.1142873E2,1.2582588E1,3.0734518E1,7.4257894E0,3.403487E1,2.0462175E2,1.1881263E2,2.8094238E2,4.496728E1,3.8572852E2,3.217842E1,8.3952675E1,1.27888596E2,6.518193E1,1.0107325E1,6.8482285E1,2.0627193E0,1.8564473E0,1.00866974E2],"tree_param":{"num_deleted":"0","num_feature":"26","num_nodes":"133","size_leaf_vector":"1"}},{"base_weights":[-2.1803737E-2,-1.6235704E-2,-1.362135E0,-1.3594712E0,-1.0665523E-2,-1.4362457E-1,2.8321337E-2,6.771069E-1,-1.593417E-1,-9.8090285E-1,3.3742607E-2,-0E0,7.255071E-1,-2.0477486E-1,4.3036647E-2,4.0588323E-2,-6.956283E-1,7.479573E-1,-0E0,4.2703375E-2,-2.7382705E-1,3.8624963E-1,-1.1113107E-1,2.1302415E-1,1.8838437E-2,-4.8851335E-1,-1.1065E0,7.796899E-1,-0E0,-8.746976E-2,3.1474897E-1,6.369884E-1,-2.8316352E-1,1.594389E-1,5.4636645E-1,-2.2979932E-2,-4.3169555E-1,-4.33115E-2,4.2061928E-1,1.8531887E-1,-1.800935E-2,-0E0,-5.4871094E-1,-0E0,8.008656E-1,-2.9557553E-1,2.8095616E-2,2.3552833E-2,4.802305E-1,7.2469234E-1,-0E0,-2.5688926E-2,-3.0637893E-1,3.430266E-2,4.636232E-1,5.9950507E-1,-0E0,2.1634214E-1,-2.9564342E-1,-5.1735187E-1,-0E0,-2.0138383E-1,2.4292625E-1,-5.7799447E-2,4.9747515E-1,1.2878276E-1,7.6046294E-1,-6.787267E-1,4.2449235E-4,-5.749134E-1,-0E0],"categories":[],"categories_nodes":[],"categories_segments":[],"categories_sizes":[],"default_left":[0,0,0,0,0,0,0,0,0,0,0,0,0,0,0,0,0,0,0,0,0,0,0,0,0,0,0,0,0,0,0,0,0,0,0,0,0,0,0,0,0,0,0,0,0,0,0,0,0,0,0,0,0,0,0,0,0,0,0,0,0,0,0,0,0,0,0,0,0,0,0],"id":1,"left_children":[1,3,-1,-1,5,7,9,11,13,-1,15,-1,17,19,21,23,25,27,-1,29,31,33,35,37,39,41,-1,43,-1,45,47,49,51,53,55,57,59,61,63,65,67,-1,69,-1,-1,-1,-1,-1,-1,-1,-1,-1,-1,-1,-1,-1,-1,-1,-1,-1,-1,-1,-1,-1,-1,-1,-1,-1,-1,-1,-1],"loss_changes":[5.8104333E2,5.803842E2,0E0,0E0,4.1127368E2,2.2805652E2,3.2528027E2,1.3179764E1,1.6425888E2,0E0,2.9739E2,0E0,5.9466553E0,2.4987415E2,1.7298386E2,2.2369452E2,2.565802E1,5.743515E0,0E0,1.1359982E2,9.481781E1,2.9006012E1,5.75813E1,3.6040945E2,3.3042014E2,7.3897705E0,0E0,3.6638947E0,0E0,5.3357903E1,4.5057266E1,6.9509315E0,6.3885376E1,1.2403119E1,1.4432465E1,1.164229E2,2.0862045E1,1.351289E2,1.4159882E2,3.0751794E2,5.4066565E2,0E0,5.8920593E0,0E0,0E0,0E0,0E0,0E0,0E0,0E0,0E0,0E0,0E0,0E0,0E0,0E0,0E0,0E0,0E0,0E0,0E0,0E0,0E0,0E0,0E0,0E0,0E0,0E0,0E0,0E0,0E0],"parents":[2147483647,0,0,1,1,4,4,5,5,6,6,7,7,8,8,10,10,12,12,13,13,14,14,15,15,16,16,17,17,19,19,20,20,21,21,22,22,23,23,24,24,25,25,27,27,29,29,30,30,31,31,32,32,33,33,34,34,35,35,36,36,37,37,38,38,39,39,40,40,42,42],"right_children":[2,4,-1,-1,6,8,10,12,14,-1,16,-1,18,20,22,24,26,28,-1,30,32,34,36,38,40,42,-1,44,-1,46,48,50,52,54,56,58,60,62,64,66,68,-1,70,-1,-1,-1,-1,-1,-1,-1,-1,-1,-1,-1,-1,-1,-1,-1,-1,-1,-1,-1,-1,-1,-1,-1,-1,-1,-1,-1,-1],"split_conditions":[1.6420469E0,-1.6389217E0,-1.362135E0,-1.3594712E0,-1.1908561E0,-3.2521827E0,-1.992566E0,-1.2777286E0,1.0393296E0,-9.8090285E-1,1.9354963E0,-0E0,1.394222E0,-1.0663111E0,-4.5261165E-1,-1.2493744E0,2.0620255E0,1.3492566E0,-0E0,3.9476678E-1,-1.6288713E0,-3.7661202E-2,1.1822556E0,-6.5810645E-1,-1.0487992E0,-8.647059E-1,-1.1065E0,-2.2645955E0,-0E0,-7.9988074E-1,-4.22321E-1,1.2624218E0,-1.2722574E0,1.2083889E0,1.1527679E0,7.6580095E-1,1.0804302E0,2.7639067E-1,-1.4384894E0,-1.1008373E0,-1.0009848E0,-0E0,1.5026053E0,-0E0,8.008656E-1,-2.9557553E-1,2.8095616E-2,2.3552833E-2,4.802305E-1,7.2469234E-1,-0E0,-2.5688926E-2,-3.0637893E-1,3.430266E-2,4.636232E-1,5.9950507E-1,-0E0,2.1634214E-1,-2.9564342E-1,-5.1735187E-1,-0E0,-2.0138383E-1,2.4292625E-1,-5.7799447E-2,4.9747515E-1,1.2878276E-1,7.6046294E-1,-6.787267E-1,4.2449235E-4,-5.749134E-1,-0E0],"split_indices":[9,9,0,0,1,1,2,0,3,0,2,0,22,3,2,2,2,24,0,2,23,7,8,9,9,3,0,22,0,9,6,0,24,14,0,9,22,3,8,9,9,0,7,0,0,0,0,0,0,0,0,0,0,0,0,0,0,0,0,0,0,0,0,0,0,0,0,0,0,0,0],"split_type":[0,0,0,0,0,0,0,0,0,0,0,0,0,0,0,0,0,0,0,0,0,0,0,0,0,0,0,0,0,0,0,0,0,0,0,0,0,0,0,0,0,0,0,0,0,0,0,0,0,0,0,0,0,0,0,0,0,0,0,0,0,0,0,0,0,0,0,0,0,0,0],"sum_hessian":[7.972299E4,7.941068E4,3.1230765E2,3.1049158E2,7.910019E4,1.7987178E4,6.111301E4,3.1812204E2,1.7669055E4,3.0705823E2,6.0805953E4,1.7279762E1,3.008423E2,1.446991E4,3.1991448E3,6.026349E4,5.4246594E2,2.9309195E2,7.7503443E0,3.1259006E3,1.134401E4,1.0070436E3,2.1921013E3,6.6885E3,5.357499E4,3.9139642E2,1.5106953E2,2.7837073E2,1.4721197E1,2.0939683E3,1.0319324E3,9.741492E1,1.1246595E4,4.5083423E2,5.5620935E2,1.7521847E3,4.399166E2,2.9748894E3,3.7136106E3,9.750909E3,4.382408E4,5.8697247E1,3.326992E2,9.335555E0,2.690352E2,7.7297626E2,1.320992E3,3.9996722E2,6.319651E2,8.6224304E1,1.1190614E1,9.675558E2,1.0279039E4,3.5060416E2,1.00230064E2,5.0043958E2,5.5769787E1,9.147133E2,8.374714E2,3.812118E2,5.87048E1,1.9409287E3,1.0339606E3,4.9633713E2,3.2172734E3,8.905166E3,8.4574316E2,1.1944958E3,4.2629586E4,3.1999942E2,1.2699759E1],"tree_param":{"num_deleted":"0","num_feature":"26","num_nodes":"71","size_leaf_vector":"1"}},{"base_weights":[-1.4570594E-2,-1.06497295E-2,-9.1366225E-1,-9.539774E-1,-6.9094906E-3,-0E0,-9.190195E-1,5.492487E-1,-1.2674707E-2,7.2396654E-1,-0E0,-3.94626E-2,8.598858E-2,7.5153095E-1,-0E0,4.2873752E-1,-7.33204E-2,-8.305406E-2,1.5746452E-1,2.8385317E-1,-8.568542E-2,-0E0,7.7312684E-1,-2.3055251E-1,8.601051E-3,-6.3924305E-2,-7.548044E-1,7.76591E-1,9.7228214E-2,8.3635755E-2,4.6671128E-1,1.4614823E-1,-1.9485326E-1,-0E0,7.79146E-1,-0E0,-3.0345303E-1,-1.0766597E-1,5.8242492E-2,-8.3484995E-1,-4.0142548E-1,-2.3839542E-1,9.4438577E-1,1.22170255E-1,-5.6577075E-1,1.53507E-1,-2.4201515E-1,5.8922374E-1,2.756928E-1,3.340717E-1,-3.8567185E-2,-8.100446E-2,-3.1205046E-1,7.915649E-1,-0E0,-3.6819926E-1,-0E0,5.4164235E-2,-1.4366135E-1,2.1367286E-1,-1.5138606E-2,-6.743694E-1,-1.0602983E0,3.7646197E-2,-6.958891E-1,-5.09446E-1,4.152132E-1,1.8222024E-1,1.1583961E0,-3.1080252E-2,1.8955933E-1,-6.906608E-1,-2.3783809E-2,2.1887682E-1,-1.7193009E-1,-3.7921503E-1,-0E0,4.3688148E-1,7.980073E-1,-1.279931E-1,3.0228025E-1,-9.071639E-3,4.5970064E-1,-1.6899359E-1,2.1773629E-1,-2.1342019E-2,-3.7178198E-1,-7.9835707E-1,-2.2054832E-1],"categories":[],"categories_nodes":[],"categories_segments":[],"categories_sizes":[],"default_left":[0,0,0,0,0,0,0,0,0,0,0,0,0,0,0,0,0,0,0,0,0,0,0,0,0,0,0,0,0,0,0,0,0,0,0,0,0,0,0,0,0,0,0,0,0,0,0,0,0,0,0,0,0,0,0,0,0,0,0,0,0,0,0,0,0,0,0,0,0,0,0,0,0,0,0,0,0,0,0,0,0,0,0,0,0,0,0,0,0],"id":2,"left_children":[1,3,5,-1,7,-1,-1,9,11,13,15,17,19,21,-1,-1,23,25,27,29,31,-1,33,35,-1,37,39,41,43,45,47,49,51,-1,53,-1,55,57,59,61,63,65,67,69,71,73,75,77,79,81,83,85,87,-1,-1,-1,-1,-1,-1,-1,-1,-1,-1,-1,-1,-1,-1,-1,-1,-1,-1,-1,-1,-1,-1,-1,-1,-1,-1,-1,-1,-1,-1,-1,-1,-1,-1,-1,-1],"loss_changes":[2.671819E2,2.6596017E2,2.3359375E0,0E0,2.4426843E2,0E0,0E0,7.4543106E1,2.0324461E2,1.3023193E1,6.7758255E0,5.204053E2,5.585857E2,1.0321533E1,0E0,0E0,4.5267034E0,6.3053613E2,3.9932385E2,2.7375848E2,2.222356E2,0E0,4.108307E0,3.2140517E0,0E0,2.5914313E2,2.2809326E1,1.7209436E2,1.6188908E2,8.332032E1,8.2492065E1,9.95063E1,7.564261E1,0E0,4.0724487E0,0E0,2.8898973E0,2.089064E2,1.4691786E2,1.450708E1,4.483682E1,2.6996508E1,1.1997681E2,1.0157007E2,1.640866E1,6.6048744E1,1.9452686E1,5.968518E1,1.9298424E1,6.51068E1,4.6111267E1,4.9622246E1,1.17148895E2,0E0,0E0,0E0,0E0,0E0,0E0,0E0,0E0,0E0,0E0,0E0,0E0,0E0,0E0,0E0,0E0,0E0,0E0,0E0,0E0,0E0,0E0,0E0,0E0,0E0,0E0,0E0,0E0,0E0,0E0,0E0,0E0,0E0,0E0,0E0,0E0],"parents":[2147483647,0,0,1,1,2,2,4,4,7,7,8,8,9,9,10,10,11,11,12,12,13,13,16,16,17,17,18,18,19,19,20,20,22,22,23,23,25,25,26,26,27,27,28,28,29,29,30,30,31,31,32,32,34,34,36,36,37,37,38,38,39,39,40,40,41,41,42,42,43,43,44,44,45,45,46,46,47,47,48,48,49,49,50,50,51,51,52,52],"right_children":[2,4,6,-1,8,-1,-1,10,12,14,16,18,20,22,-1,-1,24,26,28,30,32,-1,34,36,-1,38,40,42,44,46,48,50,52,-1,54,-1,56,58,60,62,64,66,68,70,72,74,76,78,80,82,84,86,88,-1,-1,-1,-1,-1,-1,-1,-1,-1,-1,-1,-1,-1,-1,-1,-1,-1,-1,-1,-1,-1,-1,-1,-1,-1,-1,-1,-1,-1,-1,-1,-1,-1,-1,-1,-1],"split_conditions":[1.9992361E0,-2.0088835E0,-2.9821737E0,-9.539774E-1,-1.6288713E0,-0E0,-9.190195E-1,1.1023924E0,8.6222047E-1,1.61196E0,-1.7077905E0,1.0492272E0,-3.3825952E-1,-1.1993872E0,-0E0,4.2873752E-1,9.424426E-2,1.0033016E0,1.1030391E0,-1.9594106E-1,-4.1733074E-1,-0E0,-1.9387023E0,-1.0135434E0,8.601051E-3,6.9010055E-1,5.7756937E-1,-7.8176665E-1,1.607904E0,1.50972E0,5.164175E-1,4.6303746E-1,9.9156266E-1,-0E0,2.7094104E0,-0E0,1.1379076E0,-1.2475543E0,-6.768868E-1,-2.0515721E-2,6.267958E-1,1.0897273E0,1.0650586E0,-1.166962E0,-7.8176665E-1,1.6123153E0,1.3907075E-1,5.3087497E-1,3.6973417E-1,-1.1825087E0,5.3460044E-1,1.1527679E0,1.0492272E0,7.915649E-1,-0E0,-3.6819926E-1,-0E0,5.4164235E-2,-1.4366135E-1,2.1367286E-1,-1.5138606E-2,-6.743694E-1,-1.0602983E0,3.7646197E-2,-6.958891E-1,-5.09446E-1,4.152132E-1,1.8222024E-1,1.1583961E0,-3.1080252E-2,1.8955933E-1,-6.906608E-1,-2.3783809E-2,2.1887682E-1,-1.7193009E-1,-3.7921503E-1,-0E0,4.3688148E-1,7.980073E-1,-1.279931E-1,3.0228025E-1,-9.071639E-3,4.5970064E-1,-1.6899359E-1,2.1773629E-1,-2.1342019E-2,-3.7178198E-1,-7.9835707E-1,-2.2054832E-1],"split_indices":[3,3,10,0,23,0,0,0,2,24,23,9,9,8,0,0,1,9,9,6,3,0,2,9,0,3,13,7,9,8,24,0,9,0,13,0,4,3,2,7,7,9,9,8,7,14,24,6,8,8,7,0,9,0,0,0,0,0,0,0,0,0,0,0,0,0,0,0,0,0,0,0,0,0,0,0,0,0,0,0,0,0,0,0,0,0,0,0,0],"split_type":[0,0,0,0,0,0,0,0,0,0,0,0,0,0,0,0,0,0,0,0,0,0,0,0,0,0,0,0,0,0,0,0,0,0,0,0,0,0,0,0,0,0,0,0,0,0,0,0,0,0,0,0,0,0,0,0,0,0,0,0,0,0,0,0,0,0,0,0,0,0,0,0,0,0,0,0,0,0,0,0,0,0,0,0,0,0,0,0,0],"sum_hessian":[7.843123E4,7.811183E4,3.1939847E2,2.878933E2,7.782394E4,1.0634019E0,3.1833508E2,7.709893E2,7.7052945E4,5.817403E2,1.8924901E2,6.068408E4,1.6368869E4,5.6218713E2,1.955317E1,2.1668505E1,1.675805E2,4.973204E4,1.0952038E4,7.6283984E3,8.740471E3,1.4251565E1,5.479356E2,9.300354E1,7.4576965E1,4.8380137E4,1.3519056E3,9.45808E2,1.000623E4,3.674418E3,3.9539807E3,2.7677551E3,5.972716E3,1.8197776E0,5.461158E2,8.642158E0,8.436138E1,3.568589E4,1.2694244E4,1.0680529E3,2.8385284E2,1.2512507E2,8.206829E2,9.665842E3,3.4038898E2,3.0549465E3,6.1947144E2,2.364364E3,1.5896165E3,1.3947914E3,1.3729637E3,3.081497E3,2.891219E3,5.353024E2,1.0813355E1,7.540966E1,8.951721E0,6.441763E3,2.9244127E4,4.108687E3,8.585557E3,6.731523E2,3.9490054E2,1.0381574E2,1.8003711E2,1.0082033E2,2.4304737E1,1.9422421E2,6.2645874E2,2.9085222E3,6.7573193E3,2.5941766E2,8.097134E1,2.5722637E3,4.8268274E2,3.8165573E2,2.3781573E2,1.4125187E3,9.5184546E2,7.262776E1,1.5169888E3,3.5495218E2,1.0398391E3,9.3804095E2,4.3492273E2,2.594314E3,4.871832E2,4.2831503E2,2.462904E3],"tree_param":{"num_deleted":"0","num_feature":"26","num_nodes":"89","size_leaf_vector":"1"}},{"base_weights":[-1.4325319E-2,1.8476354E-1,-3.4840718E-2,4.2513978E-2,1.6431708E0,-7.834685E-1,-1.1522091E-2,-4.8679586E-2,3.464539E-1,1.1308296E0,1.9311986E0,-9.701177E-1,1.3491573E-2,-2.8636033E-2,1.2898482E-1,-8.8896684E-2,3.5903525E-1,6.0775423E-1,1.5788396E-1,1.1575221E0,-0E0,1.953278E0,-0E0,-4.229112E-1,-1.0414133E0,2.7382573E-1,-1.611438E-1,1.2205938E-3,-7.4191046E-1,1.675269E0,-1.7867984E-2,-1.7649098E-1,7.791551E-2,-1.06676355E-1,4.843388E-1,2.03564E-1,9.637191E-1,-2.4341453E-2,5.397434E-1,1.2249479E0,-0E0,-0E0,1.9721453E0,-6.224234E-1,-6.849151E-2,-7.553735E-1,-1.1433146E0,-0E0,4.175808E-1,-5.07152E-1,1.4101014E-1,6.716555E-2,-3.5345756E-2,-9.12956E-1,-2.7502626E-3,1.1235986E0,1.8978723E0,2.7919963E-1,-8.9105844E-2,-5.7502836E-1,-1.2571077E-1,-6.639231E-2,2.3931572E-1,-0E0,-2.637611E-1,5.774872E-1,-0E0,6.1495423E-1,5.0790288E-2,1.0610971E0,-0E0,2.6490745E-1,-1.7083906E-1,5.5736554E-1,-0E0,-0E0,1.2533524E0,-0E0,1.979482E0,-0E0,-6.5857387E-1,-0E0,-3.4822497E-1,-9.580442E-1,8.949387E-2,-1.1903014E0,-5.6786245E-1,-0E0,5.1939666E-1,-0E0,-5.772684E-1,-0E0,3.8178474E-1,1.0454883E-1,-9.273833E-2,2.7605194E-1,-4.305801E-2,-9.9848235E-1,-1.649383E-1,3.194189E-1,-2.1681066E-1,1.1777081E0,-0E0,1.9073014E0,-0E0,6.3267775E-2,8.6882704E-1,3.0673815E-2,-1.9622391E-1,-1.1572428E0,-9.875917E-3,-6.541634E-2,-3.4546694E-1,-2.5397697E-1,1.3711824E-1,3.6192742E-1,-0E0,2.1746984E-1,8.0185807E-1,-0E0,7.778361E-1,-0E0,2.0892851E-1,7.254465E-1,1.5634866E0,-0E0,4.2980322E-1,-0E0,-3.158352E-1,5.8726007E-1,-0E0,1.2753025E0,-0E0,-0E0,1.9850271E0,-6.812492E-1,-0E0,-9.835802E-1,-0E0,2.0492344E-1,-0E0,-0E0,-8.6754507E-1,5.827645E-1,-0E0,-6.659654E-1,-0E0,1.21848814E-1,-4.0048894E-1,4.5626134E-1,-0E0,6.049421E-2,4.405326E-1,2.5076932E-1,-1.454717E-1,1.1023507E-1,5.6666756E-1,-6.01838E-1,-3.9238416E-2,-7.5169384E-1,-1.1366471E0,-0E0,-4.9075925E-1,-0E0,4.3015817E-1,-5.6368846E-1,2.5203472E-1,1.2071168E0,-0E0,-0E0,1.914683E0,4.699878E-1,-4.7388054E-2,9.630066E-1,-0E0,1.6650748E-1,-1.5133026E-1,-2.6569435E-1,-1.36143565E-2,-3.6063868E-1,1.9024932E-1,-1.23007245E-1,2.0064941E-1,-5.8836304E-3,-4.4434452E-1,-0E0,-4.7945625E-1,2.7321938E-1,-2.731067E-2,6.3780725E-1,1.5589477E-1,3.6317033E-1,-0E0,8.523336E-1,-0E0,-0E0,9.200117E-1,-0E0,3.022877E-1,1.0297093E0,-0E0,-0E0,1.5980104E0,-0E0,4.9935323E-1,-2.1516235E-1,1.0313394E-1,-0E0,-3.8757795E-1,6.0282475E-1,-0E0,-0E0,1.297832E0,-0E0,1.994028E0,-0E0,-7.0592374E-1,-9.911671E-1,-0E0,-0E0,-8.920383E-1,-0E0,6.241392E-1,-0E0,-7.0336735E-1,5.615071E-1,-0E0,-7.2824713E-3,1.3817765E-1,5.962819E-1,1.7229092E-1,3.7569213E-1,-2.7302486E-1,-2.8150576E-1,-8.7541535E-2,-1.01031445E-1,3.551041E-1,-0E0,6.180662E-1,-0E0,-6.578453E-1,-3.652459E-2,-7.11143E-1,-9.77531E-1,-0E0,-1.2383126E0,-7.6543164E-1,-4.5050174E-1,1.5684608E-1,-0E0,-5.369206E-1,6.3180983E-1,-0E0,-7.277533E-1,1.8062383E-2,7.7634597E-1,-0E0,-0E0,1.2419362E0,1.9282991E0,-0E0,6.5640855E-1,2.2424387E-2,2.3397186E-1,-2.1493633E-1,9.9638975E-1,-0E0,3.2073617E-2,3.269259E-1,-2.1789435E-1,5.5535513E-1,-3.1621486E-1,-0E0,1.3346428E-1,-2.4738769E-1],"categories":[],"categories_nodes":[],"categories_segments":[],"categories_sizes":[],"default_left":[0,0,0,0,0,0,0,0,0,0,0,0,0,0,0,0,0,0,0,0,0,0,0,0,0,0,0,0,0,0,0,0,0,0,0,0,0,0,0,0,0,0,0,0,0,0,0,0,0,0,0,0,0,0,0,0,0,0,0,0,0,0,0,0,0,0,0,0,0,0,0,0,0,0,0,0,0,0,0,0,0,0,0,0,0,0,0,0,0,0,0,0,0,0,0,0,0,0,0,0,0,0,0,0,0,0,0,0,0,0,0,0,0,0,0,0,0,0,0,0,0,0,0,0,0,0,0,0,0,0,0,0,0,0,0,0,0,0,0,0,0,0,0,0,0,0,0,0,0,0,0,0,0,0,0,0,0,0,0,0,0,0,0,0,0,0,0,0,0,0,0,0,0,0,0,0,0,0,0,0,0,0,0,0,0,0,0,0,0,0,0,0,0,0,0,0,0,0,0,0,0,0,0,0,0,0,0,0,0,0,0,0,0,0,0,0,0,0,0,0,0,0,0,0,0,0,0,0,0,0,0,0,0,0,0,0,0,0,0,0,0,0,0,0,0,0,0,0,0,0,0,0,0,0,0,0,0,0,0,0,0,0,0,0,0,0,0,0,0,0,0,0,0,0,0],"id":3,"left_children":[1,3,5,7,9,11,13,15,17,19,21,23,25,27,29,31,33,35,37,39,-1,41,-1,43,45,47,49,51,53,55,57,59,61,63,65,67,69,71,73,75,-1,-1,77,79,81,83,85,-1,87,89,91,93,95,97,99,101,103,105,107,109,111,113,115,-1,-1,117,-1,119,121,123,-1,125,127,129,-1,-1,131,-1,133,-1,135,-1,-1,137,139,-1,141,-1,143,-1,145,147,149,151,153,155,157,159,161,163,165,167,-1,169,-1,171,173,175,177,-1,179,181,183,185,187,189,-1,191,193,-1,195,-1,197,199,201,-1,203,205,207,209,-1,211,-1,-1,213,215,-1,217,-1,-1,-1,-1,219,221,-1,223,-1,-1,-1,225,-1,227,229,231,233,235,237,239,241,243,245,247,249,-1,251,253,255,257,-1,-1,259,261,263,265,-1,267,269,271,273,-1,-1,-1,-1,-1,-1,-1,-1,-1,-1,-1,-1,-1,-1,-1,-1,-1,-1,-1,-1,-1,-1,-1,-1,-1,-1,-1,-1,-1,-1,-1,-1,-1,-1,-1,-1,-1,-1,-1,-1,-1,-1,-1,-1,-1,-1,-1,-1,-1,-1,-1,-1,-1,-1,-1,-1,-1,-1,-1,-1,-1,-1,-1,-1,-1,-1,-1,-1,-1,-1,-1,-1,-1,-1,-1,-1,-1,-1,-1,-1,-1,-1,-1,-1,-1,-1,-1,-1,-1,-1,-1,-1,-1,-1,-1,-1],"loss_changes":[3.1273404E2,1.4640784E3,1.2102401E3,1.839655E2,4.02406E1,3.213341E2,1.6183296E2,7.962834E1,6.687833E1,1.0866333E1,2.170337E1,4.757837E1,1.9628216E1,1.2941887E3,1.6720981E3,6.8086334E1,2.931118E1,7.506386E1,6.969732E1,1.0944672E1,0E0,9.870483E0,0E0,8.918343E0,1.574585E1,6.684478E0,2.7487926E1,1.4018243E2,2.9944495E2,2.6839478E1,1.393121E2,5.3939987E1,3.7885536E1,3.4232368E0,2.1560455E1,1.2797726E1,1.8800018E1,2.5719225E1,5.0956497E0,6.9510193E0,0E0,0E0,4.119751E0,3.2362404E0,5.184936E0,8.5925E1,4.098999E0,0E0,4.317915E0,3.84593E0,5.657401E0,1.2447498E2,8.7163895E1,1.12835815E2,3.275144E1,1.4873047E1,9.501343E0,1.5101675E2,7.109567E1,9.328961E1,3.1943092E1,3.171698E1,2.5794884E1,0E0,0E0,1.3544403E1,0E0,8.270994E0,3.2473407E0,1.197757E1,0E0,7.6089907E0,9.921503E0,3.4618835E0,0E0,0E0,6.3753967E0,0E0,3.7210693E0,0E0,2.8387375E0,0E0,0E0,1.1985718E1,2.327697E0,0E0,2.424575E1,0E0,4.2371006E0,0E0,3.8155594E0,5.127866E0,2.7056365E0,2.4492485E2,6.983987E1,3.4503113E1,7.094746E1,3.241687E1,1.1447559E1,8.23118E0,5.5414814E1,9.54422E0,0E0,7.316284E0,0E0,4.712006E1,2.6262726E1,6.263962E1,3.396003E1,0E0,1.5084707E1,3.3127445E1,1.3987053E1,2.1239557E1,1.0598228E1,2.125933E1,0E0,5.1173778E0,6.283493E0,0E0,6.288368E0,0E0,2.8212857E0,4.28797E1,3.984192E0,0E0,5.103731E0,5.480091E0,7.7883835E0,3.5375366E0,0E0,4.010742E0,0E0,0E0,2.5965576E0,2.6644592E0,0E0,4.034912E0,0E0,0E0,0E0,0E0,2.1931458E0,3.6205025E0,0E0,3.1934547E0,0E0,0E0,0E0,3.592805E0,0E0,8.020141E1,7.198581E1,3.4546627E1,2.2911087E1,3.3313007E1,1.4132637E1,4.411026E0,5.8157497E1,1.249986E2,1.1230347E1,1.266084E1,3.0503387E0,0E0,9.898315E0,2.5854992E1,1.9273235E1,8.39386E0,0E0,0E0,6.8482666E0,1.1672897E1,3.4966072E1,8.68396E0,0E0,2.8174194E1,4.7210045E1,2.6834625E1,3.0674978E1,0E0,0E0,0E0,0E0,0E0,0E0,0E0,0E0,0E0,0E0,0E0,0E0,0E0,0E0,0E0,0E0,0E0,0E0,0E0,0E0,0E0,0E0,0E0,0E0,0E0,0E0,0E0,0E0,0E0,0E0,0E0,0E0,0E0,0E0,0E0,0E0,0E0,0E0,0E0,0E0,0E0,0E0,0E0,0E0,0E0,0E0,0E0,0E0,0E0,0E0,0E0,0E0,0E0,0E0,0E0,0E0,0E0,0E0,0E0,0E0,0E0,0E0,0E0,0E0,0E0,0E0,0E0,0E0,0E0,0E0,0E0,0E0,0E0,0E0,0E0,0E0,0E0,0E0,0E0,0E0,0E0,0E0,0E0,0E0,0E0,0E0,0E0,0E0,0E0,0E0,0E0,0E0,0E0,0E0,0E0,0E0],"parents":[2147483647,0,0,1,1,2,2,3,3,4,4,5,5,6,6,7,7,8,8,9,9,10,10,11,11,12,12,13,13,14,14,15,15,16,16,17,17,18,18,19,19,21,21,23,23,24,24,25,25,26,26,27,27,28,28,29,29,30,30,31,31,32,32,33,33,34,34,35,35,36,36,37,37,38,38,39,39,42,42,43,43,44,44,45,45,46,46,48,48,49,49,50,50,51,51,52,52,53,53,54,54,55,55,56,56,57,57,58,58,59,59,60,60,61,61,62,62,65,65,67,67,68,68,69,69,71,71,72,72,73,73,76,76,78,78,80,80,83,83,84,84,86,86,88,88,90,90,91,91,92,92,93,93,94,94,95,95,96,96,97,97,98,98,99,99,100,100,101,101,103,103,105,105,106,106,107,107,108,108,110,110,111,111,112,112,113,113,114,114,115,115,117,117,118,118,120,120,122,122,123,123,124,124,126,126,127,127,128,128,129,129,131,131,134,134,135,135,137,137,142,142,143,143,145,145,149,149,151,151,152,152,153,153,154,154,155,155,156,156,157,157,158,158,159,159,160,160,161,161,162,162,164,164,165,165,166,166,167,167,170,170,171,171,172,172,173,173,175,175,176,176,177,177,178,178],"right_children":[2,4,6,8,10,12,14,16,18,20,22,24,26,28,30,32,34,36,38,40,-1,42,-1,44,46,48,50,52,54,56,58,60,62,64,66,68,70,72,74,76,-1,-1,78,80,82,84,86,-1,88,90,92,94,96,98,100,102,104,106,108,110,112,114,116,-1,-1,118,-1,120,122,124,-1,126,128,130,-1,-1,132,-1,134,-1,136,-1,-1,138,140,-1,142,-1,144,-1,146,148,150,152,154,156,158,160,162,164,166,168,-1,170,-1,172,174,176,178,-1,180,182,184,186,188,190,-1,192,194,-1,196,-1,198,200,202,-1,204,206,208,210,-1,212,-1,-1,214,216,-1,218,-1,-1,-1,-1,220,222,-1,224,-1,-1,-1,226,-1,228,230,232,234,236,238,240,242,244,246,248,250,-1,252,254,256,258,-1,-1,260,262,264,266,-1,268,270,272,274,-1,-1,-1,-1,-1,-1,-1,-1,-1,-1,-1,-1,-1,-1,-1,-1,-1,-1,-1,-1,-1,-1,-1,-1,-1,-1,-1,-1,-1,-1,-1,-1,-1,-1,-1,-1,-1,-1,-1,-1,-1,-1,-1,-1,-1,-1,-1,-1,-1,-1,-1,-1,-1,-1,-1,-1,-1,-1,-1,-1,-1,-1,-1,-1,-1,-1,-1,-1,-1,-1,-1,-1,-1,-1,-1,-1,-1,-1,-1,-1,-1,-1,-1,-1,-1,-1,-1,-1,-1,-1,-1,-1,-1,-1,-1,-1],"split_conditions":[-1.266749E0,-1.2955375E0,-1.1907021E0,-1.3668233E0,-4.329453E-1,5.380713E-1,1.2658418E0,1.378649E0,-1.3459581E0,2.1859932E0,2.5496151E0,-1.2510384E0,3.974888E-1,1.1822556E0,1.2955825E0,8.978946E-1,-1.1766841E0,-1.3562778E0,-1.3217978E0,3.23077E-1,-0E0,-8.480351E-1,-0E0,-3.460674E-1,-8.3929926E-1,7.885196E-1,1.3037463E0,2.7665266E-1,5.5064136E-1,-6.470091E-1,1.3541206E0,-7.8176665E-1,-4.4114482E-1,-8.863538E-1,3.9539957E-1,-7.9738003E-1,9.1412956E-1,-3.650854E-1,1.8188837E0,-1.8510131E0,-0E0,-0E0,-1.6288713E0,-2.0516813E0,-1.1742443E-1,-5.3218096E-1,3.23077E-1,-0E0,-7.224513E-1,-1.2510384E0,-1.2277955E0,8.1580365E-1,-1.7107385E0,1.2499573E0,2.9308748E-1,3.0180714E-1,1.9867673E0,1.3444612E0,2.2675665E-1,5.997384E-1,-1.4108757E0,-3.2193086E-1,-8.585671E-1,-0E0,-2.637611E-1,1.9895801E-1,-0E0,-1.1579912E0,5.329389E-1,-9.812507E-2,-0E0,-5.3226733E-1,-1.3346132E0,1.3563685E0,-0E0,-0E0,1.7261485E0,-0E0,-3.113816E0,-0E0,1.607904E0,-0E0,-3.4822497E-1,1.1127409E0,3.939154E-2,-1.1903014E0,-5.763439E-2,-0E0,3.098367E-1,-0E0,-1.1993872E0,-1.2381257E0,1.7009902E0,8.193607E-1,-4.329453E-1,-9.87253E-1,-1.9387023E0,-6.588539E-1,-3.1842852E-1,-1.2395142E0,1.3591713E0,2.146416E0,-0E0,-1.3611169E0,-0E0,-5.525221E-1,9.309436E-1,1.2971971E0,4.0638357E-1,-1.1572428E0,-2.540742E-1,-1.4384894E0,-9.410494E-1,1.1923217E0,5.728971E-1,1.1853715E0,-0E0,-8.2626045E-1,1.5337713E0,-0E0,-5.8637434E-1,-0E0,-7.824963E-1,-1.9411065E-1,-1.8202033E0,-0E0,-9.172346E-1,-2.0813867E-1,-1.4788953E0,2.0047534E0,-0E0,-1.8191628E0,-0E0,-0E0,-2.6274457E0,-1.6578867E0,-0E0,2.1502454E0,-0E0,2.0492344E-1,-0E0,-0E0,-2.299246E0,-1.9195343E0,-0E0,-2.1126184E0,-0E0,1.21848814E-1,-4.0048894E-1,2.075743E-2,-0E0,8.0478355E-2,3.5598305E-1,2.6036143E-1,-4.6978223E-1,-1.708347E-1,-1.1750681E0,4.2080313E-1,1.9867673E0,-5.2211934E-1,8.853039E-2,-1.0745511E0,-1.1944664E0,-0E0,3.77473E-1,1.2499573E0,1.206626E0,-1.7612997E0,-0E0,-0E0,1.5263559E0,3.2077637E-1,1.3215449E0,1.8193653E0,-0E0,9.885516E-1,1.5591619E0,1.6687263E0,-5.1003784E-1,-3.6063868E-1,1.9024932E-1,-1.23007245E-1,2.0064941E-1,-5.8836304E-3,-4.4434452E-1,-0E0,-4.7945625E-1,2.7321938E-1,-2.731067E-2,6.3780725E-1,1.5589477E-1,3.6317033E-1,-0E0,8.523336E-1,-0E0,-0E0,9.200117E-1,-0E0,3.022877E-1,1.0297093E0,-0E0,-0E0,1.5980104E0,-0E0,4.9935323E-1,-2.1516235E-1,1.0313394E-1,-0E0,-3.8757795E-1,6.0282475E-1,-0E0,-0E0,1.297832E0,-0E0,1.994028E0,-0E0,-7.0592374E-1,-9.911671E-1,-0E0,-0E0,-8.920383E-1,-0E0,6.241392E-1,-0E0,-7.0336735E-1,5.615071E-1,-0E0,-7.2824713E-3,1.3817765E-1,5.962819E-1,1.7229092E-1,3.7569213E-1,-2.7302486E-1,-2.8150576E-1,-8.7541535E-2,-1.01031445E-1,3.551041E-1,-0E0,6.180662E-1,-0E0,-6.578453E-1,-3.652459E-2,-7.11143E-1,-9.77531E-1,-0E0,-1.2383126E0,-7.6543164E-1,-4.5050174E-1,1.5684608E-1,-0E0,-5.369206E-1,6.3180983E-1,-0E0,-7.277533E-1,1.8062383E-2,7.7634597E-1,-0E0,-0E0,1.2419362E0,1.9282991E0,-0E0,6.5640855E-1,2.2424387E-2,2.3397186E-1,-2.1493633E-1,9.9638975E-1,-0E0,3.2073617E-2,3.269259E-1,-2.1789435E-1,5.5535513E-1,-3.1621486E-1,-0E0,1.3346428E-1,-2.4738769E-1],"split_indices":[8,8,8,8,6,12,8,0,8,11,12,8,6,8,8,14,3,8,8,12,0,12,0,12,6,12,12,0,12,6,8,7,2,12,7,12,12,12,3,3,0,0,23,6,6,12,12,0,17,8,8,24,12,8,6,12,2,8,3,14,8,3,7,0,0,24,0,2,16,6,0,2,8,18,0,0,2,0,1,0,9,0,0,1,7,0,6,0,21,0,8,8,7,6,6,6,2,6,6,9,12,19,0,12,0,12,12,23,24,0,24,8,6,9,0,9,0,6,11,0,20,0,4,12,3,0,20,7,2,12,0,12,0,0,10,16,0,0,0,0,0,0,13,3,0,13,0,0,0,15,0,7,24,7,25,24,8,0,2,12,12,12,15,0,7,8,8,12,0,0,1,4,8,5,0,14,0,14,6,0,0,0,0,0,0,0,0,0,0,0,0,0,0,0,0,0,0,0,0,0,0,0,0,0,0,0,0,0,0,0,0,0,0,0,0,0,0,0,0,0,0,0,0,0,0,0,0,0,0,0,0,0,0,0,0,0,0,0,0,0,0,0,0,0,0,0,0,0,0,0,0,0,0,0,0,0,0,0,0,0,0,0,0,0,0,0,0,0,0,0,0,0,0,0,0],"split_type":[0,0,0,0,0,0,0,0,0,0,0,0,0,0,0,0,0,0,0,0,0,0,0,0,0,0,0,0,0,0,0,0,0,0,0,0,0,0,0,0,0,0,0,0,0,0,0,0,0,0,0,0,0,0,0,0,0,0,0,0,0,0,0,0,0,0,0,0,0,0,0,0,0,0,0,0,0,0,0,0,0,0,0,0,0,0,0,0,0,0,0,0,0,0,0,0,0,0,0,0,0,0,0,0,0,0,0,0,0,0,0,0,0,0,0,0,0,0,0,0,0,0,0,0,0,0,0,0,0,0,0,0,0,0,0,0,0,0,0,0,0,0,0,0,0,0,0,0,0,0,0,0,0,0,0,0,0,0,0,0,0,0,0,0,0,0,0,0,0,0,0,0,0,0,0,0,0,0,0,0,0,0,0,0,0,0,0,0,0,0,0,0,0,0,0,0,0,0,0,0,0,0,0,0,0,0,0,0,0,0,0,0,0,0,0,0,0,0,0,0,0,0,0,0,0,0,0,0,0,0,0,0,0,0,0,0,0,0,0,0,0,0,0,0,0,0,0,0,0,0,0,0,0,0,0,0,0,0,0,0,0,0,0,0,0,0,0,0,0,0,0,0,0,0,0],"sum_hessian":[7.690947E4,7.131856E3,6.977761E4,6.513676E3,6.1818005E2,2.0850107E3,6.76926E4,4.9915254E3,1.5221508E3,2.5268541E2,3.6549466E2,1.6977664E3,3.8724448E2,6.041331E4,7.279294E3,4.5728086E3,4.187165E2,6.06486E2,9.156647E2,2.4882011E2,3.8652935E0,3.627421E2,2.7525494E0,2.1986221E2,1.477904E3,1.7618402E2,2.1106046E2,5.798222E4,2.4310881E3,6.282425E2,6.6510513E3,3.037279E3,1.5355298E3,7.216893E1,3.4654758E2,3.0452078E2,3.0196524E2,6.08473E2,3.0719168E2,2.2840543E2,2.0414694E1,4.5600286E0,3.5818207E2,1.17782455E2,1.02079765E2,4.360795E2,1.0418246E3,6.77909E1,1.0839312E2,1.10655594E2,1.0040486E2,2.0777143E4,3.720508E4,1.9613429E3,4.6974524E2,2.1092143E2,4.1732104E2,1.2536526E3,5.397399E3,3.093384E2,2.7279407E3,7.810881E2,7.5444165E2,1.9522516E1,5.264641E1,3.0545294E2,4.1094643E1,5.6545555E1,2.4797522E2,2.640312E2,3.7934048E1,1.7890158E2,4.295714E2,3.0385452E2,3.3371828E0,6.258563E0,2.2214685E2,1.6727896E0,3.5650928E2,6.1818514E0,1.116006E2,6.498523E1,3.7094532E1,3.6017554E2,7.590398E1,9.372352E2,1.0458934E2,2.5861343E1,8.253178E1,1.5989133E1,9.4666466E1,5.653069E1,4.3874172E1,1.6893645E4,3.8834968E3,8.594272E2,3.634565E4,1.7450963E3,2.1624664E2,1.6690662E2,3.028386E2,2.018106E2,9.110835E0,4.157183E2,1.6027775E0,9.3812695E2,3.1552557E2,2.5074001E3,2.8899988E3,1.3849313E2,1.7084526E2,2.1865103E3,5.4143036E2,4.3072632E2,3.5036176E2,5.211492E2,2.332925E2,1.4194873E2,1.6350421E2,1.1281359E1,4.5264194E1,1.6833658E2,7.963865E1,1.8486565E2,7.9165535E1,7.595161E1,1.0294998E2,2.1149721E2,2.180742E2,2.8275226E2,2.1102243E1,2.1814432E2,4.00254E0,1.1004226E0,3.5540884E2,1.0975705E2,1.843554E0,3.5359302E2,6.5825014E0,6.1813667E1,1.4090308E1,3.3278797E1,7.131055E1,7.5978874E1,6.5528994E0,7.724605E1,1.7420414E1,3.910532E1,1.7425365E1,4.0718594E1,3.15558E0,1.4972055E4,1.921591E3,4.865966E2,3.3969001E3,5.778981E2,2.8152908E2,2.1835342E2,3.6127297E4,6.7543134E2,1.0696649E3,1.5316003E2,6.3086605E1,3.4876534E1,1.3203009E2,1.85156E2,1.17682594E2,1.9816574E2,3.6448526E0,1.2804221E0,4.1443787E2,2.1302869E2,7.2509827E2,2.832871E2,3.2238464E1,1.4677678E3,1.0396323E3,2.0505813E3,8.3941736E2,7.730304E1,9.354222E1,1.8327634E3,3.5374683E2,1.4729466E2,3.941357E2,2.2466286E2,2.0606346E2,2.213479E2,1.2901387E2,1.9309729E2,3.2805188E2,8.328424E1,5.8664486E1,1.5221204E2,1.1292168E1,8.331545E0,3.693265E1,1.5943402E1,6.3695244E1,1.2716117E2,5.7704483E1,2.2508936E0,7.691464E1,8.80444E0,9.414554E1,7.462972E1,1.368675E2,2.4773115E1,1.9330109E2,2.775646E2,5.1876755E0,5.470992E0,2.1267332E2,2.6383922E0,3.5277048E2,2.8787642E0,1.0687828E2,3.521552E2,1.4378169E0,1.647749E0,6.9662796E1,1.72732E0,7.425156E1,2.577017E0,7.466903E1,3.488283E1,5.835761E0,7.931966E3,7.040089E3,1.1843893E3,7.3720166E2,4.105912E2,7.60054E1,9.5144995E2,2.4454502E3,2.914654E2,2.864327E2,9.475354E0,2.720537E2,2.7034948E1,1.9131847E2,3.600729E4,1.2000698E2,5.261185E2,1.4931277E2,8.002126E2,2.6945233E2,3.7103622E1,1.1605642E2,1.445874E0,6.1640728E1,8.063247E1,5.139762E1,1.5587584E2,2.9280165E1,3.5434265E1,8.224833E1,6.066722E0,1.9209901E2,4.103067E2,4.13117E0,1.3132094E2,8.170775E1,2.4687616E2,4.7822214E2,2.7271075E2,1.0576367E1,8.3900287E2,6.2876495E2,9.6939075E2,7.024158E1,1.7131232E3,3.3745825E2,4.9162537E2,3.47792E2],"tree_param":{"num_deleted":"0","num_feature":"26","num_nodes":"275","size_leaf_vector":"1"}},{"base_weights":[-1.8054014E-2,-9.817036E-1,-1.6147066E-2,-5.797335E-2,1.3728878E-2,-1.0040278E0,-5.5844564E-2,-7.514048E-2,2.9147167E-2,-1.0310091E0,-0E0,-4.1696835E-2,-1.5922786E-1,-1.2474141E0,5.7061553E-2,4.7141563E-2,-1.3693282E-1,-4.951069E-2,2.377197E-1,-4.5661557E-1,-4.6944786E-2,-1.3868123E0,-5.7989913E-1,1.3297737E-1,-7.732178E-2,1.458046E-1,2.8196665E-2,2.4086846E-2,-1.6746408E-1,-4.3299157E-2,-4.0045014E-1,3.541681E-1,-0E0,-0E0,-5.0274956E-1,2.0395923E-1,-1.337894E-1,-6.3639003E-1,-0E0,-2.2161905E-2,3.106598E-1,-1.4903662E-1,1.5390427E-1,-7.274914E-2,3.0426306E-1,-3.1765252E-1,3.961953E-2,1.2150095E-1,-1.4929716E-1,-2.4800038E-2,-2.1653338E-1,-5.2696194E-2,1.9448814E-1,-4.591569E-1,-0E0,4.0844926E-1,-0E0,9.804014E-2,-2.2029127E-1,-5.947629E-1,-2.8941944E-1,3.6596254E-2,4.4419232E-1,-1.7934321E-1,2.9611145E-3,-0E0,-6.81997E-1,1.0957493E-1,-2.585756E-1,4.166634E-1,1.3000444E-1,-2.214E-1,6.8583764E-2,-0E0,3.0334416E-1,-2.8000695E-1,2.7566904E-2,5.036046E-1,2.0412207E-1,-5.262749E-1,-0E0,1.236346E-1,-1.9451758E-3,-0E0,2.699863E-1,-0E0,-2.9606926E-1,1.5542296E-1,-1.0025412E-1,-2.6440066E-1,-2.816471E-2,-1.4785911E-1,-3.61732E-2,2.626488E-1,-9.244003E-3,-6.287883E-1,-2.1328738E-1,-0E0,4.490628E-1,-1.1677271E-2,2.7413484E-1,-0E0,-6.3160735E-1,-4.4739458E-1,-0E0,1.01048775E-1,-1.35537E-1,-0E0,4.6791857E-1,-6.11484E-3,-2.1691042E-1,-1.5886217E-1,5.706358E-2,-7.086196E-1,-0E0,-9.45257E-2,1.71772E-1,-0E0,-4.0922523E-1,7.2965133E-1,3.2874864E-1,-5.6026686E-2,2.1283174E-1,-2.678542E-1,-0E0,1.5526989E-1,-1.6715962E-1,-0E0,4.5011735E-1,-3.3405048E-1,1.323382E-1,-9.344842E-3,6.594745E-1,5.995142E-1,1.2758492E-1,-0E0,2.888695E-1,-3.1507772E-1,-8.387924E-1,3.5399517E-1,-1.5181422E-1,-2.5515541E-2,2.5681484E-1,2.5072345E-1,-3.039696E-2,1.9153017E-1,-9.7747214E-2,3.9814517E-1,-0E0,-4.096709E-1,-0E0,-0E0,3.0310094E-1,-1.9469686E-1,-0E0,-2.1209612E-1,-4.82444E-1,2.0780857E-1,-1.410672E-1],"categories":[],"categories_nodes":[],"categories_segments":[],"categories_sizes":[],"default_left":[0,0,0,0,0,0,0,0,0,0,0,0,0,0,0,0,0,0,0,0,0,0,0,0,0,0,0,0,0,0,0,0,0,0,0,0,0,0,0,0,0,0,0,0,0,0,0,0,0,0,0,0,0,0,0,0,0,0,0,0,0,0,0,0,0,0,0,0,0,0,0,0,0,0,0,0,0,0,0,0,0,0,0,0,0,0,0,0,0,0,0,0,0,0,0,0,0,0,0,0,0,0,0,0,0,0,0,0,0,0,0,0,0,0,0,0,0,0,0,0,0,0,0,0,0,0,0,0,0,0,0,0,0,0,0,0,0,0,0,0,0,0,0,0,0,0,0,0,0,0,0,0,0,0,0,0,0,0,0],"id":4,"left_children":[1,-1,3,5,7,9,11,13,15,-1,-1,17,19,21,23,25,27,29,31,33,35,-1,37,39,41,43,45,47,49,51,53,55,57,-1,59,61,63,65,-1,67,69,71,73,75,77,79,81,83,85,87,89,91,93,95,-1,97,-1,99,-1,101,103,105,107,109,111,-1,113,115,117,119,121,123,125,-1,127,129,131,133,135,137,139,141,143,145,147,-1,149,151,153,155,157,-1,-1,-1,-1,-1,-1,-1,-1,-1,-1,-1,-1,-1,-1,-1,-1,-1,-1,-1,-1,-1,-1,-1,-1,-1,-1,-1,-1,-1,-1,-1,-1,-1,-1,-1,-1,-1,-1,-1,-1,-1,-1,-1,-1,-1,-1,-1,-1,-1,-1,-1,-1,-1,-1,-1,-1,-1,-1,-1,-1,-1,-1,-1,-1,-1,-1,-1,-1],"loss_changes":[1.2733747E2,0E0,9.377502E1,5.1795746E1,5.9075867E1,2.1369896E0,4.357408E1,9.9336554E2,1.1008719E2,0E0,0E0,5.8390884E1,1.1724101E2,3.272235E1,5.8696617E1,6.0927666E1,1.9056747E1,5.3909416E1,1.944793E1,2.0279785E1,5.8369614E1,0E0,5.588356E0,1.0457415E2,3.3551155E1,1.8666788E2,1.0891925E2,8.797695E0,1.895372E1,5.7715626E1,1.3106873E1,8.138233E0,5.452922E0,0E0,6.8776703E0,2.189536E1,1.4478905E1,4.497143E0,0E0,6.2423553E1,2.7487366E1,2.6468601E1,1.3287679E1,4.8679646E1,5.39899E1,5.3681763E1,9.681872E1,5.7333655E0,3.931962E0,1.1116113E1,1.7047272E1,3.814216E1,1.5972614E1,6.7161407E0,0E0,8.39402E0,0E0,6.1804433E0,0E0,9.979477E0,1.1242653E1,4.5545063E0,4.1713104E0,8.074165E0,3.1419935E0,0E0,2.8527756E0,1.6554184E1,2.9412075E1,1.6263992E1,1.2415031E1,1.0766361E1,7.619225E0,0E0,1.5121706E1,1.9311588E1,4.085005E1,2.8025314E1,3.4438377E1,1.9677734E1,1.8906883E1,1.8395065E2,1.2903668E2,4.9567604E0,6.6915035E0,0E0,4.4545636E0,5.579968E0,7.277009E0,1.1753792E1,1.305413E1,0E0,0E0,0E0,0E0,0E0,0E0,0E0,0E0,0E0,0E0,0E0,0E0,0E0,0E0,0E0,0E0,0E0,0E0,0E0,0E0,0E0,0E0,0E0,0E0,0E0,0E0,0E0,0E0,0E0,0E0,0E0,0E0,0E0,0E0,0E0,0E0,0E0,0E0,0E0,0E0,0E0,0E0,0E0,0E0,0E0,0E0,0E0,0E0,0E0,0E0,0E0,0E0,0E0,0E0,0E0,0E0,0E0,0E0,0E0,0E0,0E0,0E0,0E0,0E0,0E0,0E0,0E0,0E0],"parents":[2147483647,0,0,2,2,3,3,4,4,5,5,6,6,7,7,8,8,11,11,12,12,13,13,14,14,15,15,16,16,17,17,18,18,19,19,20,20,22,22,23,23,24,24,25,25,26,26,27,27,28,28,29,29,30,30,31,31,32,32,34,34,35,35,36,36,37,37,39,39,40,40,41,41,42,42,43,43,44,44,45,45,46,46,47,47,48,48,49,49,50,50,51,51,52,52,53,53,55,55,57,57,59,59,60,60,61,61,62,62,63,63,64,64,66,66,67,67,68,68,69,69,70,70,71,71,72,72,74,74,75,75,76,76,77,77,78,78,79,79,80,80,81,81,82,82,83,83,84,84,86,86,87,87,88,88,89,89,90,90],"right_children":[2,-1,4,6,8,10,12,14,16,-1,-1,18,20,22,24,26,28,30,32,34,36,-1,38,40,42,44,46,48,50,52,54,56,58,-1,60,62,64,66,-1,68,70,72,74,76,78,80,82,84,86,88,90,92,94,96,-1,98,-1,100,-1,102,104,106,108,110,112,-1,114,116,118,120,122,124,126,-1,128,130,132,134,136,138,140,142,144,146,148,-1,150,152,154,156,158,-1,-1,-1,-1,-1,-1,-1,-1,-1,-1,-1,-1,-1,-1,-1,-1,-1,-1,-1,-1,-1,-1,-1,-1,-1,-1,-1,-1,-1,-1,-1,-1,-1,-1,-1,-1,-1,-1,-1,-1,-1,-1,-1,-1,-1,-1,-1,-1,-1,-1,-1,-1,-1,-1,-1,-1,-1,-1,-1,-1,-1,-1,-1,-1,-1,-1,-1,-1],"split_conditions":[-1.6389217E0,-9.817036E-1,-1.476963E-1,-2.369455E0,-7.8176665E-1,4.8923653E-1,1.3571221E0,5.997384E-1,3.1686184E-1,-1.0310091E0,-0E0,1.3180301E0,1.4381301E0,-7.9655063E-1,1.1853715E0,-1.0646892E0,-8.0351275E-1,1.2941272E0,1.3459867E0,-1.2398281E0,1.6032829E0,-1.3868123E0,6.9316626E-1,-1.1910274E0,6.032921E-1,-4.637841E-1,-9.9483144E-1,1.3300352E-1,-3.4726416E-3,1.2233669E0,-4.0487748E-1,9.5417905E-1,-5.9769326E-1,-0E0,-6.467529E-1,1.5661836E0,8.884075E-1,-1.491624E0,-0E0,-5.8100957E-1,-1.2820646E0,9.711311E-1,1.5866767E0,-7.418993E-1,4.7988486E-1,2.459992E-1,-4.4114482E-1,2.4291672E-1,-5.975947E-2,-7.804514E-1,1.4052299E0,-1.3648112E0,1.2830883E0,1.3053535E0,-0E0,-1.9512715E0,-0E0,-9.4336134E-1,-2.2029127E-1,-1.3862906E0,6.120152E-1,9.2430884E-1,-1.7912282E0,-9.000253E-1,-2.4539787E-1,-0E0,2.0694377E0,-1.5507858E0,9.694859E-2,-1.1008373E0,-1.1825087E0,1.193674E-1,1.5808414E0,-0E0,4.9181196E-1,1.5042552E0,-1.0887796E0,7.4214137E-1,1.193674E-1,1.3536401E-2,2.1708149E-1,4.336233E-1,-8.533919E-1,-2.740233E-1,8.1985176E-1,-0E0,1.0531664E0,3.2719693E-1,6.8011945E-1,1.2176229E0,5.5176884E-1,-1.4785911E-1,-3.61732E-2,2.626488E-1,-9.244003E-3,-6.287883E-1,-2.1328738E-1,-0E0,4.490628E-1,-1.1677271E-2,2.7413484E-1,-0E0,-6.3160735E-1,-4.4739458E-1,-0E0,1.01048775E-1,-1.35537E-1,-0E0,4.6791857E-1,-6.11484E-3,-2.1691042E-1,-1.5886217E-1,5.706358E-2,-7.086196E-1,-0E0,-9.45257E-2,1.71772E-1,-0E0,-4.0922523E-1,7.2965133E-1,3.2874864E-1,-5.6026686E-2,2.1283174E-1,-2.678542E-1,-0E0,1.5526989E-1,-1.6715962E-1,-0E0,4.5011735E-1,-3.3405048E-1,1.323382E-1,-9.344842E-3,6.594745E-1,5.995142E-1,1.2758492E-1,-0E0,2.888695E-1,-3.1507772E-1,-8.387924E-1,3.5399517E-1,-1.5181422E-1,-2.5515541E-2,2.5681484E-1,2.5072345E-1,-3.039696E-2,1.9153017E-1,-9.7747214E-2,3.9814517E-1,-0E0,-4.096709E-1,-0E0,-0E0,3.0310094E-1,-1.9469686E-1,-0E0,-2.1209612E-1,-4.82444E-1,2.0780857E-1,-1.410672E-1],"split_indices":[9,0,21,6,7,15,17,14,15,0,0,17,17,7,9,9,24,17,17,15,17,0,1,9,2,2,9,1,7,17,15,5,21,0,15,17,20,4,0,16,13,16,14,3,23,13,2,19,18,17,6,17,17,17,0,1,0,15,0,12,20,13,2,8,0,0,25,9,2,9,8,2,9,0,16,0,9,2,2,7,7,9,9,18,8,0,8,8,0,7,22,0,0,0,0,0,0,0,0,0,0,0,0,0,0,0,0,0,0,0,0,0,0,0,0,0,0,0,0,0,0,0,0,0,0,0,0,0,0,0,0,0,0,0,0,0,0,0,0,0,0,0,0,0,0,0,0,0,0,0,0,0,0,0,0,0,0,0,0],"split_type":[0,0,0,0,0,0,0,0,0,0,0,0,0,0,0,0,0,0,0,0,0,0,0,0,0,0,0,0,0,0,0,0,0,0,0,0,0,0,0,0,0,0,0,0,0,0,0,0,0,0,0,0,0,0,0,0,0,0,0,0,0,0,0,0,0,0,0,0,0,0,0,0,0,0,0,0,0,0,0,0,0,0,0,0,0,0,0,0,0,0,0,0,0,0,0,0,0,0,0,0,0,0,0,0,0,0,0,0,0,0,0,0,0,0,0,0,0,0,0,0,0,0,0,0,0,0,0,0,0,0,0,0,0,0,0,0,0,0,0,0,0,0,0,0,0,0,0,0,0,0,0,0,0,0,0,0,0,0,0],"sum_hessian":[7.480082E4,1.272253E2,7.467359E4,3.124956E4,4.3424035E4,4.9046112E1,3.1200516E4,6.318361E3,3.710567E4,4.800649E1,1.0396248E0,2.75422E4,3.6583164E3,6.3945087E2,5.67891E3,3.3539152E4,3.5665195E3,2.6835756E4,7.0644244E2,9.698609E2,2.6884556E3,5.076755E2,1.3177534E2,3.6765005E3,2.0024097E3,5.3068467E3,2.8232307E4,5.165977E2,3.0499219E3,2.640807E4,4.2768683E2,4.6781357E2,2.3862885E2,9.1345505E1,8.7851544E2,6.582018E2,2.0302537E3,1.21521034E2,1.0254315E1,1.9373881E3,1.7391125E3,1.5641044E3,4.3830527E2,2.20622E3,3.100627E3,8.6609503E2,2.7366213E4,3.6960602E2,1.4699168E2,8.3655896E2,2.213363E3,2.5452076E4,9.559938E2,3.8508807E2,4.259875E1,3.980349E2,6.9778656E1,1.7238803E2,6.624081E1,5.685383E2,3.0997708E2,4.192635E2,2.389383E2,1.5754554E3,4.547983E2,7.3333964E0,1.1418764E2,1.2204069E3,7.1698114E2,1.0528884E3,6.8622406E2,1.2081476E3,3.559567E2,1.8850223E2,2.4980305E2,7.462349E2,1.4599851E3,9.89925E2,2.110702E3,5.0299753E2,3.6309747E2,9.130832E3,1.8235379E4,2.2407182E2,1.455342E2,7.221524E1,7.477644E1,2.0464133E2,6.319176E2,1.7193315E3,4.9403146E2,3.6641252E3,2.1787951E4,7.5094855E2,2.0504523E2,1.9458978E2,1.9049829E2,2.8843208E1,3.691917E2,7.6976425E1,9.541161E1,4.0512913E1,5.2802545E2,1.8007155E2,1.2990553E2,3.5031708E2,6.894643E1,5.553613E0,2.3338469E2,3.302835E2,1.2451719E3,6.2790623E1,3.920077E2,1.1071275E2,3.474879E0,2.4627493E2,9.7413196E2,2.6109946E2,4.5588168E2,1.8993907E2,8.629494E2,1.752078E2,5.1101624E2,9.723208E2,2.3582681E2,2.9376706E2,6.218963E1,6.717181E1,1.8263124E2,6.8288385E2,6.3351063E1,1.373766E3,8.6219055E1,7.6281836E2,2.2710664E2,6.490943E2,1.4616075E3,3.3123282E2,1.7176474E2,8.8542206E1,2.7455527E2,4.275569E3,4.855263E3,1.8020974E3,1.6433283E4,8.6750496E1,1.3732133E2,1.037323E2,4.1801895E1,6.082045E1,1.395599E1,9.746612E1,1.0717521E2,3.5217322E2,2.7974442E2,1.4395902E3,2.7974124E2,1.2849365E2,3.655378E2],"tree_param":{"num_deleted":"0","num_feature":"26","num_nodes":"159","size_leaf_vector":"1"}},{"base_weights":[-1.16119245E-2,-1.4676684E-2,4.0254748E-1,-3.632576E-1,-1.1379362E-2,-0E0,6.115671E-1,-6.574151E-1,-2.661265E-1,-1.0067398E-2,-9.033157E-1,-1.5441428E-1,2.4812439E-1,7.4858147E-1,-0E0,-6.757994E-1,-0E0,-0E0,-2.8327918E-1,-8.838317E-1,-8.79515E-3,-0E0,-3.0172464E-1,-0E0,3.4175807E-1,-0E0,7.833051E-1,-1.0826253E-1,3.6945352E-1,-3.1537712E-1,-0E0,-7.524418E-3,-8.7716955E-1,-3.6748764E-1,-0E0,-0E0,4.3033203E-1,7.978463E-1,-0E0,-3.308113E-1,-0E0,4.1391976E-2,-2.6810858E-2,-0E0,4.9300203E-1,8.406312E-1,-0E0,-3.509339E-1,-0E0,-1.3875201E-1,7.504499E-2,-4.7790606E-2,6.7625016E-2,-0E0,8.6920166E-1,-0E0,-3.728579E-1,-2.4403648E-1,-0E0,-6.178276E-2,1.2885459E-1,-4.010559E-2,-3.9063162E-1,8.666875E-2,-3.966323E-1,-0E0,8.818646E-1],"categories":[],"categories_nodes":[],"categories_segments":[],"categories_sizes":[],"default_left":[0,0,0,0,0,0,0,0,0,0,0,0,0,0,0,0,0,0,0,0,0,0,0,0,0,0,0,0,0,0,0,0,0,0,0,0,0,0,0,0,0,0,0,0,0,0,0,0,0,0,0,0,0,0,0,0,0,0,0,0,0,0,0,0,0,0,0],"id":5,"left_children":[1,3,5,7,9,11,13,15,17,19,-1,21,23,25,27,-1,-1,-1,29,-1,31,-1,33,-1,35,-1,37,-1,-1,39,-1,41,-1,-1,-1,-1,43,45,-1,47,-1,49,51,-1,-1,53,-1,55,-1,57,59,61,63,-1,65,-1,-1,-1,-1,-1,-1,-1,-1,-1,-1,-1,-1],"loss_changes":[8.98907E1,8.048477E1,4.3120453E1,7.82415E0,7.581447E1,7.6922283E0,2.5866333E1,2.5697556E0,3.4570389E0,7.168585E1,0E0,3.6585739E0,3.5367723E0,8.796463E0,4.3925514E0,0E0,0E0,0E0,3.5976448E0,0E0,7.10909E1,0E0,2.4844131E0,0E0,3.8957634E0,0E0,4.8907776E0,0E0,0E0,3.2582626E0,0E0,6.818575E1,0E0,0E0,0E0,0E0,3.3417463E0,4.1499786E0,0E0,3.5629654E0,0E0,1.2274941E2,1.03040794E2,0E0,0E0,3.5471191E0,0E0,3.5583153E0,0E0,4.608016E1,1.272989E2,1.0808005E2,8.0232506E1,0E0,2.6485596E0,0E0,0E0,0E0,0E0,0E0,0E0,0E0,0E0,0E0,0E0,0E0,0E0],"parents":[2147483647,0,0,1,1,2,2,3,3,4,4,5,5,6,6,7,7,8,8,9,9,11,11,12,12,13,13,14,14,18,18,20,20,22,22,24,24,26,26,29,29,31,31,36,36,37,37,39,39,41,41,42,42,45,45,47,47,49,49,50,50,51,51,52,52,54,54],"right_children":[2,4,6,8,10,12,14,16,18,20,-1,22,24,26,28,-1,-1,-1,30,-1,32,-1,34,-1,36,-1,38,-1,-1,40,-1,42,-1,-1,-1,-1,44,46,-1,48,-1,50,52,-1,-1,54,-1,56,-1,58,60,62,64,-1,66,-1,-1,-1,-1,-1,-1,-1,-1,-1,-1,-1,-1],"split_conditions":[1.5263559E0,-1.9195343E0,1.9066009E-1,-2.0088835E0,2.0620255E0,6.446023E-1,1.2380437E0,1.1127409E0,-2.0709293E0,-2.0678663E0,-9.033157E-1,-2.7371052E-1,-1.0064404E0,-1.8929614E0,2.574531E0,-6.757994E-1,-0E0,-0E0,1.0708601E0,-8.838317E-1,1.6420469E0,-0E0,2.574531E0,-0E0,-9.0398693E-1,-0E0,1.7850016E0,-1.0826253E-1,3.6945352E-1,2.3587394E0,-0E0,-6.629672E-1,-8.7716955E-1,-3.6748764E-1,-0E0,-0E0,-1.7875293E0,7.8544563E-1,-0E0,1.5540318E0,-0E0,-1.1750681E0,1.2508845E0,-0E0,4.9300203E-1,-1.2812809E0,-0E0,-1.2395492E0,-0E0,-1.3435805E-1,-9.8912877E-1,1.1949975E0,1.950042E0,-0E0,-2.4313881E0,-0E0,-3.728579E-1,-2.4403648E-1,-0E0,-6.178276E-2,1.2885459E-1,-4.010559E-2,-3.9063162E-1,8.666875E-2,-3.966323E-1,-0E0,8.818646E-1],"split_indices":[1,3,24,3,2,23,6,1,13,2,0,22,15,5,0,0,0,0,10,0,9,0,0,0,14,0,8,0,0,14,0,3,0,0,0,0,17,7,0,13,0,8,3,0,0,21,0,21,0,2,9,3,3,0,10,0,0,0,0,0,0,0,0,0,0,0,0],"split_type":[0,0,0,0,0,0,0,0,0,0,0,0,0,0,0,0,0,0,0,0,0,0,0,0,0,0,0,0,0,0,0,0,0,0,0,0,0,0,0,0,0,0,0,0,0,0,0,0,0,0,0,0,0,0,0,0,0,0,0,0,0,0,0,0,0,0,0],"sum_hessian":[7.381843E4,7.330973E4,5.0869742E2,6.4831006E2,7.266142E4,1.7867702E2,3.3002042E2,1.2105696E2,5.272531E2,7.257599E4,8.542877E1,1.1034016E2,6.833687E1,2.6310114E2,6.691928E1,1.1965017E2,1.4067955E0,2.0012173E1,5.0724094E2,8.4006874E1,7.2491984E4,4.8634335E1,6.1705822E1,6.763766E0,6.15731E1,9.3396635E0,2.5376146E2,4.9880318E1,1.7038963E1,4.4348376E2,6.375716E1,7.240763E4,8.435496E1,5.6734837E1,4.970983E0,5.3940964E0,5.6179005E1,2.5191782E2,1.8436447E0,4.3192902E2,1.1554752E1,2.0325611E4,5.208202E4,2.0066807E0,5.4172325E1,2.3180772E2,2.0110085E1,4.1163226E2,2.029676E1,3.1476917E3,1.717792E4,4.270546E4,9.376557E3,1.0940081E1,2.2086765E2,2.2530954E1,3.891013E2,1.7845525E3,1.3631392E3,4.795793E3,1.2382127E4,4.180863E4,8.968312E2,9.035592E3,3.4096515E2,3.1768754E0,2.1769078E2],"tree_param":{"num_deleted":"0","num_feature":"26","num_nodes":"67","size_leaf_vector":"1"}},{"base_weights":[-4.039083E-3,1.9294676E-1,-8.671043E-3,-4.7938117E-1,2.1909718E-1,-3.4971902E-1,-5.8128648E-3,-0E0,-6.125484E-1,4.71982E-1,1.5699741E-1,-0E0,-3.9808005E-1,-8.33426E-2,4.653567E-3,-0E0,5.6418663E-1,-0E0,2.5266832E-1,-0E0,-4.2541668E-1,-1.0948877E0,1.3962226E-2,4.3115493E-2,-3.110083E-2,6.930484E-1,4.880073E-2,1.8765455E-1,-1.3291854E-1,6.40241E-1,1.5571474E-1,-4.3769252E-1,-0E0,-1.2852002E0,-4.4313866E-1,-2.6242375E-1,3.241391E-2,-7.800568E-4,1.15692765E-1,1.244073E-2,-1.6836414E-1,-0E0,7.6730675E-1,2.7785686E-1,-1.5127513E-2,-0E0,-3.328395E-1,7.5649536E-1,-0E0,-3.852933E-1,2.1982907E-1,-0E0,-4.6573886E-1,-0E0,-4.8975137E-1,1.2913453E-3,-4.108283E-1,4.985757E-2,-2.296681E-1,-2.5545765E-2,1.1691217E-1,1.9701964E-1,8.259622E-3,-6.163474E-2,6.699362E-2,-5.354734E-2,-2.3620634E-1,-0E0,8.0642486E-1,-0E0,4.1018105E-1,-1.9190438E-1,8.243438E-2,-4.7744963E-1,-0E0,-0E0,8.6516786E-1,-0E0,-4.6643612E-1,-0E0,2.700446E-1,-4.8120984E-1,-0E0,-5.069977E-1,-0E0,-2.6030872E-2,1.8788293E-1,-0E0,-4.8270005E-1,-1.8575048E-2,1.20375834E-1,-3.15027E-1,-0E0,1.8387146E-2,-1.1414871E-1,-3.068669E-1,1.5152067E-1,1.207876E-1,3.8014105E-1,1.2370936E-1,-4.570738E-2,-3.509291E-2,-7.8468657E-1,1.9415222E-1,-2.7465364E-2,2.7167776E-3,-1.888521E-1,-3.8248315E-1,-1.6115189E-1,-0E0,8.4874296E-1,4.6997187E-1,-0E0,2.1710154E-1,-0E0,-0E0,-5.2867943E-1,9.048917E-1,-0E0,2.994809E-1,-0E0,-2.2070313E-2,-5.2762866E-1,-0E0,-5.22756E-1,-0E0,2.9856524E-1,4.993231E-2,-1.1388033E-1,4.4535303E-1,8.326394E-2,-3.5961375E-1,-0E0,-5.1836472E-2,2.503818E-1,1.3769491E-1,-1.3366728E-1,-0E0,-4.9226132E-1,1.866147E-1,-3.418651E-1,1.7443553E-1,-1.9314645E-2,4.3644053E-1,-0E0,1.594735E-1,-9.928251E-2,-1.619085E-1,1.9601803E-2,-7.549499E-2,8.0158815E-2,-1.097436E0,-4.2597908E-1,1.474127E-1,4.9542835E-1,6.592125E-2,-1.2379577E-1,-1.601934E-1,9.531743E-2,-4.4957072E-1,-9.379925E-2,-4.017035E-1,-0E0,1.292259E-1,-2.166399E-1],"categories":[],"categories_nodes":[],"categories_segments":[],"categories_sizes":[],"default_left":[0,0,0,0,0,0,0,0,0,0,0,0,0,0,0,0,0,0,0,0,0,0,0,0,0,0,0,0,0,0,0,0,0,0,0,0,0,0,0,0,0,0,0,0,0,0,0,0,0,0,0,0,0,0,0,0,0,0,0,0,0,0,0,0,0,0,0,0,0,0,0,0,0,0,0,0,0,0,0,0,0,0,0,0,0,0,0,0,0,0,0,0,0,0,0,0,0,0,0,0,0,0,0,0,0,0,0,0,0,0,0,0,0,0,0,0,0,0,0,0,0,0,0,0,0,0,0,0,0,0,0,0,0,0,0,0,0,0,0,0,0,0,0,0,0,0,0,0,0,0,0,0,0,0,0,0,0,0,0,0,0,0,0,0,0],"id":6,"left_children":[1,3,5,7,9,11,13,-1,-1,15,17,-1,19,21,23,-1,25,27,29,-1,31,33,35,37,39,41,-1,43,45,47,49,51,-1,-1,53,55,57,59,61,63,65,-1,67,69,-1,71,73,75,-1,77,79,-1,81,-1,83,85,87,89,91,93,95,97,99,101,103,105,107,-1,109,-1,111,-1,113,115,-1,-1,117,-1,-1,-1,119,121,-1,123,-1,-1,125,-1,-1,127,129,131,-1,133,135,137,139,141,143,145,147,149,151,153,155,157,159,161,163,-1,-1,-1,-1,-1,-1,-1,-1,-1,-1,-1,-1,-1,-1,-1,-1,-1,-1,-1,-1,-1,-1,-1,-1,-1,-1,-1,-1,-1,-1,-1,-1,-1,-1,-1,-1,-1,-1,-1,-1,-1,-1,-1,-1,-1,-1,-1,-1,-1,-1,-1,-1,-1,-1,-1,-1],"loss_changes":[6.493954E1,2.7139183E1,6.6170944E1,3.328619E0,1.797004E1,9.454926E0,5.840114E1,0E0,0E0,1.627816E1,2.1907799E1,0E0,5.2005463E0,8.533667E2,8.601017E1,0E0,8.520699E0,1.1791691E1,2.3159061E1,0E0,3.6681824E0,7.131152E1,3.7606056E1,9.743678E1,1.9423099E2,7.919533E0,0E0,5.9334927E0,8.014822E0,1.28328285E1,2.4079931E1,3.9948807E0,0E0,0E0,6.9167786E0,2.194109E1,3.1975471E1,5.3788292E1,9.820245E1,9.879821E1,5.7878235E1,0E0,5.42083E0,7.107727E0,0E0,3.405456E0,1.0530946E1,1.0390991E1,0E0,2.45193E0,9.522919E0,0E0,2.827362E0,0E0,2.4817123E0,2.4314084E0,8.360794E0,3.4565186E1,8.55801E0,6.16045E1,4.5733116E1,8.496808E1,3.2038746E1,1.8893695E2,1.716647E2,2.4488777E1,4.727057E1,0E0,6.2686615E0,0E0,3.81139E0,0E0,2.697946E0,4.083725E0,0E0,0E0,5.602478E0,0E0,0E0,0E0,5.264286E0,3.0655746E0,0E0,2.418621E0,0E0,0E0,3.052774E0,0E0,0E0,2.3302528E1,3.6490932E1,7.4980927E0,0E0,1.7065372E2,2.5899368E1,1.7011007E1,5.068264E1,3.6365387E1,3.5716003E1,1.3974993E1,2.6961384E1,4.632705E1,1.940303E1,7.841336E1,7.336431E1,3.052747E1,1.7070732E1,1.2552689E1,5.3880737E1,0E0,0E0,0E0,0E0,0E0,0E0,0E0,0E0,0E0,0E0,0E0,0E0,0E0,0E0,0E0,0E0,0E0,0E0,0E0,0E0,0E0,0E0,0E0,0E0,0E0,0E0,0E0,0E0,0E0,0E0,0E0,0E0,0E0,0E0,0E0,0E0,0E0,0E0,0E0,0E0,0E0,0E0,0E0,0E0,0E0,0E0,0E0,0E0,0E0,0E0,0E0,0E0,0E0,0E0,0E0,0E0],"parents":[2147483647,0,0,1,1,2,2,3,3,4,4,5,5,6,6,9,9,10,10,12,12,13,13,14,14,16,16,17,17,18,18,20,20,21,21,22,22,23,23,24,24,25,25,27,27,28,28,29,29,30,30,31,31,34,34,35,35,36,36,37,37,38,38,39,39,40,40,42,42,43,43,45,45,46,46,47,47,49,49,50,50,52,52,54,54,55,55,56,56,57,57,58,58,59,59,60,60,61,61,62,62,63,63,64,64,65,65,66,66,68,68,70,70,72,72,73,73,76,76,80,80,81,81,83,83,86,86,89,89,90,90,91,91,93,93,94,94,95,95,96,96,97,97,98,98,99,99,100,100,101,101,102,102,103,103,104,104,105,105,106,106,107,107,108,108],"right_children":[2,4,6,8,10,12,14,-1,-1,16,18,-1,20,22,24,-1,26,28,30,-1,32,34,36,38,40,42,-1,44,46,48,50,52,-1,-1,54,56,58,60,62,64,66,-1,68,70,-1,72,74,76,-1,78,80,-1,82,-1,84,86,88,90,92,94,96,98,100,102,104,106,108,-1,110,-1,112,-1,114,116,-1,-1,118,-1,-1,-1,120,122,-1,124,-1,-1,126,-1,-1,128,130,132,-1,134,136,138,140,142,144,146,148,150,152,154,156,158,160,162,164,-1,-1,-1,-1,-1,-1,-1,-1,-1,-1,-1,-1,-1,-1,-1,-1,-1,-1,-1,-1,-1,-1,-1,-1,-1,-1,-1,-1,-1,-1,-1,-1,-1,-1,-1,-1,-1,-1,-1,-1,-1,-1,-1,-1,-1,-1,-1,-1,-1,-1,-1,-1,-1,-1,-1,-1],"split_conditions":[-2.2476842E0,6.157334E-1,-1.2777286E0,1.651333E-1,-7.13093E-1,-1.2310777E0,-7.8176665E-1,-0E0,-6.125484E-1,-1.6051956E0,-1.0278E0,-0E0,-1.5658498E0,5.997384E-1,1.7738478E-1,-0E0,3.3661225E-1,3.6756065E-2,9.9728996E-1,-0E0,1.61196E0,-7.9655063E-1,-1.5507858E0,6.871609E-1,1.0445503E0,-1.2740644E0,4.880073E-2,1.0806001E0,8.3457065E-1,1.3112247E0,1.0897273E0,-1.4132407E0,-0E0,-1.2852002E0,-1.4239491E0,-1.0656313E0,1.5535612E0,2.6036143E-1,-1.5620518E-1,1.5987436E-1,5.984439E-1,-0E0,-2.2312448E0,1.6123153E0,-1.5127513E-2,1.1983653E0,7.47445E-1,-1.1935067E0,-0E0,-2.6245618E0,-9.16527E-1,-0E0,1.8753271E0,-0E0,7.873044E-1,1.5086478E0,-7.572614E-1,1.6406351E0,5.2603275E-1,-2.6733384E-1,-9.781955E-1,6.296487E-1,9.577838E-1,9.4528437E-1,1.7365216E-1,5.540063E-1,5.7674557E-1,-0E0,-1.4184976E0,-0E0,1.2269026E0,-1.9190438E-1,5.4007076E-2,8.1134313E-1,-0E0,-0E0,1.753572E0,-0E0,-4.6643612E-1,-0E0,1.3239118E0,-9.531401E-1,-0E0,-2.7975292E0,-0E0,-2.6030872E-2,-1.3972806E0,-0E0,-4.8270005E-1,-3.2655343E-1,-8.275059E-1,1.4451562E0,-0E0,3.723069E-1,-1.213811E0,-1.0646892E0,9.9156266E-1,2.2101301E-1,1.5477248E0,9.9728996E-1,-1.5052418E-1,-8.676754E-2,7.032773E-2,1.3536581E0,5.8586293E-1,-1.8094815E-1,2.1099618E-1,1.5686167E0,1.7135E-1,-0E0,8.4874296E-1,4.6997187E-1,-0E0,2.1710154E-1,-0E0,-0E0,-5.2867943E-1,9.048917E-1,-0E0,2.994809E-1,-0E0,-2.2070313E-2,-5.2762866E-1,-0E0,-5.22756E-1,-0E0,2.9856524E-1,4.993231E-2,-1.1388033E-1,4.4535303E-1,8.326394E-2,-3.5961375E-1,-0E0,-5.1836472E-2,2.503818E-1,1.3769491E-1,-1.3366728E-1,-0E0,-4.9226132E-1,1.866147E-1,-3.418651E-1,1.7443553E-1,-1.9314645E-2,4.3644053E-1,-0E0,1.594735E-1,-9.928251E-2,-1.619085E-1,1.9601803E-2,-7.549499E-2,8.0158815E-2,-1.097436E0,-4.2597908E-1,1.474127E-1,4.9542835E-1,6.592125E-2,-1.2379577E-1,-1.601934E-1,9.531743E-2,-4.4957072E-1,-9.379925E-2,-4.017035E-1,-0E0,1.292259E-1,-2.166399E-1],"split_indices":[13,14,0,14,16,2,7,0,0,9,9,0,24,14,13,0,21,3,9,0,24,7,9,0,0,11,0,18,2,2,9,7,0,0,8,16,9,7,7,6,13,0,6,14,0,20,15,3,0,7,25,0,18,0,20,14,2,14,3,6,9,24,0,7,24,7,6,0,19,0,4,0,25,8,0,0,10,0,0,0,18,25,0,1,0,0,11,0,0,12,16,16,0,24,24,9,9,6,6,9,24,6,6,6,22,24,6,2,22,0,0,0,0,0,0,0,0,0,0,0,0,0,0,0,0,0,0,0,0,0,0,0,0,0,0,0,0,0,0,0,0,0,0,0,0,0,0,0,0,0,0,0,0,0,0,0,0,0,0,0,0,0,0,0,0],"split_type":[0,0,0,0,0,0,0,0,0,0,0,0,0,0,0,0,0,0,0,0,0,0,0,0,0,0,0,0,0,0,0,0,0,0,0,0,0,0,0,0,0,0,0,0,0,0,0,0,0,0,0,0,0,0,0,0,0,0,0,0,0,0,0,0,0,0,0,0,0,0,0,0,0,0,0,0,0,0,0,0,0,0,0,0,0,0,0,0,0,0,0,0,0,0,0,0,0,0,0,0,0,0,0,0,0,0,0,0,0,0,0,0,0,0,0,0,0,0,0,0,0,0,0,0,0,0,0,0,0,0,0,0,0,0,0,0,0,0,0,0,0,0,0,0,0,0,0,0,0,0,0,0,0,0,0,0,0,0,0,0,0,0,0,0,0],"sum_hessian":[7.3163305E4,1.6219121E3,7.154139E4,3.9917305E1,1.5819949E3,5.5541156E2,7.098598E4,1.04735E1,2.9443808E1,2.6713278E2,1.314862E3,6.936935E1,4.8604224E2,8.548567E3,6.243741E4,3.2041363E1,2.3509142E2,4.7019186E2,8.4467017E2,3.296607E1,4.5307617E2,7.5018353E2,7.798384E3,3.0213547E4,3.2223863E4,1.6978899E2,6.530242E1,1.6845354E2,3.0173834E2,1.3716682E2,7.0750336E2,4.4661252E2,6.4636517E0,5.612379E2,1.8894566E2,4.4585074E2,7.352533E3,1.8747162E4,1.1466386E4,2.4415285E4,7.8085786E3,1.9664068E1,1.5012492E2,1.4816016E2,2.0293383E1,1.8967526E2,1.1206307E2,1.17834465E2,1.9332363E1,5.3128628E1,6.5437476E2,3.4920734E1,4.1169177E2,7.2305036E0,1.8171515E2,1.3985602E2,3.0599472E2,6.937069E3,4.15464E2,1.5564712E4,3.18245E3,6.4683926E3,4.997993E3,1.0276532E4,1.4138752E4,2.9616118E3,4.846967E3,6.822304E0,1.4330263E2,4.3339554E1,1.04820595E2,5.5950718E1,1.3372453E2,9.5516525E1,1.6546545E1,1.6215164E1,1.016193E2,8.783665E0,4.4344963E1,9.352483E1,5.608499E2,3.9722266E2,1.4469142E1,1.7854874E2,3.1664174E0,8.2750916E1,5.7105103E1,5.1211353E1,2.5478339E2,3.4523674E3,3.4847017E3,3.023692E2,1.130948E2,1.0335177E4,5.229535E3,2.1252151E2,2.9699285E3,4.6174062E3,1.8509865E3,1.6469994E3,3.3509937E3,9.936112E3,3.4041986E2,6.066916E3,8.0718364E3,2.0465018E3,9.1511005E2,1.5845577E3,3.2624092E3,6.2040725E0,1.3709856E2,9.471956E1,1.0101032E1,6.7962555E1,6.5761986E1,4.8478913E0,9.066864E1,9.88765E1,2.7427957E0,5.128412E2,4.8008736E1,5.760657E1,3.3961606E2,2.345613E0,1.7620312E2,6.2849216E0,5.082018E1,1.9502926E3,1.5020748E3,3.1826828E2,3.1664333E3,2.8769278E2,1.4676403E1,7.906561E3,2.4286152E3,3.3494446E2,4.894591E3,6.584821E1,1.4667331E2,2.7974355E3,1.7249304E2,3.388723E3,1.2286832E3,1.5893354E3,2.61651E2,1.4604595E3,1.8653987E2,1.2554916E3,2.095502E3,7.423857E3,2.512255E3,1.5596516E2,1.8445471E2,5.2937383E3,7.7317755E2,4.0474355E3,4.0244011E3,6.998978E2,1.346604E3,2.0642082E2,7.086892E2,1.5134084E3,7.114928E1,4.9235068E2,2.7700586E3],"tree_param":{"num_deleted":"0","num_feature":"26","num_nodes":"165","size_leaf_vector":"1"}},{"base_weights":[-1.0686101E-2,-9.687433E-2,-9.5065805E-4,-1.5352757E-2,-3.4216157E-1,-6.315136E-3,1.5318727E-1,-8.729342E-2,1.6077138E-1,-6.795498E-1,-1.120687E-1,-3.5413844E-3,-6.974876E-1,6.9428045E-1,8.29435E-2,-3.602742E-2,-4.4589365E-1,-2.0344807E-2,6.0903E-1,-4.3079957E-1,-9.485154E-1,7.964006E-2,-3.854928E-1,-1.2788387E-3,-3.5287115E-1,-0E0,-8.266228E-1,7.974964E-1,-0E0,2.203027E-1,-1.2215646E-1,-1.2953E-1,9.033652E-2,-6.1006784E-1,-4.8297726E-2,1.6015762E-1,-2.558308E-1,2.7789202E-1,8.7377805E-1,-8.6819875E-1,-4.2400032E-2,-1.0015749E0,-0E0,-2.2425874E-1,5.766768E-1,-9.3961203E-1,-8.194843E-2,8.926196E-3,-6.587066E-2,-6.5983486E-1,-1.5095828E-1,-1.9581425E-1,5.4825747E-1,-0E0,-8.405378E-1,-0E0,8.348687E-1,-2.5055286E-2,6.5332353E-1,-5.324736E-1,-0E0,-2.1035829E-1,-0E0,-2.2867475E-2,3.586588E-1,-7.7440983E-1,-3.4466553E-2,-3.7010655E-1,1.7106485E-1,-0E0,4.1655383E-1,-3.9288825E-1,5.7819146E-1,5.604519E-1,-1.8490556E-1,9.107964E-1,-0E0,-8.820145E-1,-0E0,-4.7065267E-1,3.3868635E-1,-0E0,-1.0196079E0,-3.3017603E-1,1.729238E-1,-0E0,1.0052041E0,-9.833991E-1,-0E0,2.4132748E-1,-3.5013714E-1,1.3923841E-3,2.3441193E-1,-2.909235E-1,-4.7717174E-3,-6.921054E-1,-0E0,-0E0,-2.510425E-1,-8.539231E-1,-0E0,8.661287E-1,-0E0,1.5677395E-1,-1.17779925E-1,7.737407E-1,-0E0,-7.407936E-1,-0E0,2.9300252E-1,-8.9398645E-2,-1.17905416E-1,-4.5855388E-1,-2.4788606E-1,9.710331E-2,1.8989503E-1,-3.075359E-1,9.624705E-2,6.3700527E-1,-0E0,-7.963454E-1,-2.6360846E-1,1.6565374E-1,-0E0,-6.018747E-1,-3.6080323E-2,4.668432E-1,-9.739267E-2,3.3506295E-1,5.8143866E-1,-0E0,-4.59329E-1,-0E0,7.695361E-1,-0E0,-0E0,8.303996E-1,-4.4287196E-1,-0E0,9.6494824E-1,-0E0,-6.5102136E-1,2.22851E-3,-5.335244E-1,8.0080926E-1,-5.5172396E-1,-0E0,3.4941554E-1,-0E0,8.3301526E-1,-5.3665346E-1,1.0972965E0,-0E0,-1.004122E0,-0E0,-4.1187018E-1,1.1712915E0,-8.499254E-1,1.6865777E-2,6.201594E-2,-1.0297291E-2,3.7188295E-1,1.3073279E-1,-5.0197554E-1,-2.9711481E-2,7.170486E-3,-3.4700826E-1,-4.1258645E-1,-0E0,-0E0,-8.7049854E-1,8.926451E-1,-0E0,-0E0,3.5072318E-1,-1.9028087E-1,2.0133793E-1,8.815584E-1,1.4359821E-1,-0E0,-7.6931804E-1,-0E0,4.2304242E-1,-0E0,-2.513074E-1,-3.055147E-1,1.6952476E-2,-6.542451E-1,-1.6184437E-1,-3.3610544E-1,-0E0,2.835534E-1,-6.4104125E-2,-1.1998339E-1,4.031974E-1,-5.3803647E-1,-1.453017E-2,4.7857136E-1,-3.4569287E-1,7.043144E-1,-0E0,-8.090549E-1,-0E0,-3.4982735E-1,-0E0,-7.374355E-1,-0E0,8.5758495E-1,-0E0,3.0247257E-3,-3.5576925E-1,4.3235883E-1,-0E0,6.4693815E-1,-0E0,-1.9674632E-1,2.2260527E-1,-4.8829487E-1,-0E0,8.2254803E-1,-0E0,2.9532796E-1,-1.6447118E-1,-0E0,1.0492992E0,-5.734702E-1,-0E0,-3.9733627E-1,5.0859475E-1,-0E0,1.0091766E0,-7.293745E-1,-0E0,-8.014892E-1,-0E0,-0E0,1.0920752E0,-6.107773E-1,-0E0,4.9895164E-1,-3.766083E-1,8.995123E-1,-0E0,-7.6599395E-1,-0E0,1.2864158E-1,1.2723253E0,-0E0,-1.0263805E0,-5.578506E-1,-0E0,-0E0,1.2062333E0,-0E0,-8.761548E-1,4.9233735E-1,-3.106373E-1,3.9104607E-2,4.5402664E-1,5.055978E-2,-3.1209756E-2,4.8890558E-1,4.971187E-2,-3.97417E-2,2.198572E-1,-1.3956322E-1,-6.388514E-1,3.517654E-1,-2.1089953E-1,-2.0607287E-2,1.23289324E-1,-0E0,-4.2546755E-1,-4.5689398E-1,-0E0,-0E0,-8.830163E-1,9.156174E-1,-0E0,-1.517533E-1,1.16051584E-1,4.0177238E-1,-0E0,-2.439828E-1,2.2322609E-1,-0E0,4.2131612E-1,1.1578706E-1,9.6304893E-1,-0E0,5.201596E-1,-8.012665E-1,-0E0,5.289887E-1,-0E0,1.3596219E-1,-1.7440504E-1,-3.6103114E-1,-0E0],"categories":[],"categories_nodes":[],"categories_segments":[],"categories_sizes":[],"default_left":[0,0,0,0,0,0,0,0,0,0,0,0,0,0,0,0,0,0,0,0,0,0,0,0,0,0,0,0,0,0,0,0,0,0,0,0,0,0,0,0,0,0,0,0,0,0,0,0,0,0,0,0,0,0,0,0,0,0,0,0,0,0,0,0,0,0,0,0,0,0,0,0,0,0,0,0,0,0,0,0,0,0,0,0,0,0,0,0,0,0,0,0,0,0,0,0,0,0,0,0,0,0,0,0,0,0,0,0,0,0,0,0,0,0,0,0,0,0,0,0,0,0,0,0,0,0,0,0,0,0,0,0,0,0,0,0,0,0,0,0,0,0,0,0,0,0,0,0,0,0,0,0,0,0,0,0,0,0,0,0,0,0,0,0,0,0,0,0,0,0,0,0,0,0,0,0,0,0,0,0,0,0,0,0,0,0,0,0,0,0,0,0,0,0,0,0,0,0,0,0,0,0,0,0,0,0,0,0,0,0,0,0,0,0,0,0,0,0,0,0,0,0,0,0,0,0,0,0,0,0,0,0,0,0,0,0,0,0,0,0,0,0,0,0,0,0,0,0,0,0,0,0,0,0,0,0,0,0,0,0,0,0,0,0,0,0,0,0,0,0,0,0,0,0,0,0,0,0,0,0,0,0,0,0,0,0,0,0,0,0,0,0,0,0,0,0,0,0,0],"id":7,"left_children":[1,3,5,7,9,11,13,15,17,19,21,23,25,27,29,31,33,35,37,39,41,43,45,47,49,51,53,55,-1,57,59,61,63,65,67,69,71,73,75,77,79,81,-1,83,85,87,89,91,93,95,97,-1,-1,-1,99,-1,101,103,105,107,109,111,113,115,117,119,121,123,125,127,129,131,133,135,137,139,-1,-1,-1,141,143,-1,-1,145,147,149,151,153,-1,155,157,159,161,163,165,-1,-1,-1,167,169,-1,171,-1,173,175,177,-1,179,-1,181,183,185,187,189,191,193,195,197,199,-1,201,203,-1,-1,205,-1,207,209,211,213,215,217,-1,219,-1,221,223,225,227,229,-1,231,-1,233,235,237,239,-1,-1,241,243,245,-1,247,-1,249,251,253,255,257,259,261,263,265,267,269,271,273,-1,-1,275,277,-1,279,281,283,285,287,289,-1,291,-1,293,295,297,-1,-1,-1,-1,-1,-1,-1,-1,-1,-1,-1,-1,-1,-1,-1,-1,-1,-1,-1,-1,-1,-1,-1,-1,-1,-1,-1,-1,-1,-1,-1,-1,-1,-1,-1,-1,-1,-1,-1,-1,-1,-1,-1,-1,-1,-1,-1,-1,-1,-1,-1,-1,-1,-1,-1,-1,-1,-1,-1,-1,-1,-1,-1,-1,-1,-1,-1,-1,-1,-1,-1,-1,-1,-1,-1,-1,-1,-1,-1,-1,-1,-1,-1,-1,-1,-1,-1,-1,-1,-1,-1,-1,-1,-1,-1,-1,-1,-1,-1,-1,-1,-1,-1,-1,-1,-1,-1,-1,-1,-1,-1,-1,-1,-1],"loss_changes":[5.981336E1,1.4132184E2,5.246318E1,6.886156E1,1.292826E2,1.13920334E2,7.2646545E1,6.7430466E1,1.3208957E2,2.9019043E1,6.030017E1,4.6139946E1,2.8112442E1,1.3491051E1,5.5167645E1,4.164275E1,2.3630135E1,4.8116028E1,2.665474E1,5.8786972E1,1.1115753E1,9.9265816E1,6.8217354E1,4.1771454E1,1.4204102E1,7.9382424E0,3.3686523E0,7.2197723E0,0E0,1.3170572E2,4.1750217E1,2.0580029E1,4.7208607E1,2.1170654E1,1.4289059E1,2.5079983E1,5.8158722E1,3.5809925E1,1.0709244E1,2.6041565E0,4.1338905E1,4.378174E0,0E0,1.8245068E1,6.680448E1,6.6642914E0,3.0270216E1,8.9110306E1,1.161342E2,3.8186264E0,4.5726085E0,0E0,0E0,0E0,3.3990479E0,0E0,5.1519775E0,1.2396645E1,3.0879257E1,2.6475655E1,1.6839218E1,2.2206211E1,2.0564753E1,6.2120132E1,2.5241127E1,5.07399E0,5.6948237E0,8.3472805E0,9.783642E0,1.2610838E1,1.5935722E1,1.1595245E1,1.1246994E1,2.183778E1,6.2563972E0,1.0465897E1,0E0,0E0,0E0,1.7369038E1,5.4524994E1,0E0,0E0,2.8276608E1,3.8500524E0,5.382671E1,1.9768082E1,3.4993591E0,0E0,9.576946E1,4.5090946E1,3.748633E1,1.8688057E1,9.45587E1,3.1450306E1,0E0,0E0,0E0,7.072399E0,2.1307068E0,0E0,4.9045563E0,0E0,7.2486644E0,1.2700077E1,1.3373718E1,0E0,3.6161118E0,0E0,4.849725E0,7.373362E0,2.692535E1,8.4552E0,8.248784E0,1.9889357E1,4.0092747E1,2.4800495E1,4.7614178E1,1.0146294E1,0E0,2.490097E0,2.4424524E0,0E0,0E0,6.568161E0,0E0,1.7517494E1,1.1429616E1,4.2288485E0,8.210472E0,3.8042474E0,7.5872116E0,0E0,3.0731583E0,0E0,4.1978073E0,9.934021E0,3.7950602E0,1.21803E1,5.5581665E0,0E0,7.6938896E0,0E0,7.052658E0,1.0996738E1,9.735477E0,2.6550478E1,0E0,0E0,4.346323E0,1.5921808E1,8.369293E0,0E0,2.2355957E0,0E0,5.613576E0,3.7997818E0,2.8430939E0,2.100093E1,7.187343E1,5.5306583E1,2.0124992E1,1.7459034E1,4.0023575E1,5.757518E1,2.2366005E1,5.1512737E0,2.619175E0,0E0,0E0,2.449646E0,5.21904E0,0E0,2.4749537E0,3.1434803E0,1.1153051E1,6.2319818E0,6.6516876E0,9.265455E0,0E0,4.197937E0,0E0,7.4232044E0,6.241201E0,8.207475E0,0E0,0E0,0E0,0E0,0E0,0E0,0E0,0E0,0E0,0E0,0E0,0E0,0E0,0E0,0E0,0E0,0E0,0E0,0E0,0E0,0E0,0E0,0E0,0E0,0E0,0E0,0E0,0E0,0E0,0E0,0E0,0E0,0E0,0E0,0E0,0E0,0E0,0E0,0E0,0E0,0E0,0E0,0E0,0E0,0E0,0E0,0E0,0E0,0E0,0E0,0E0,0E0,0E0,0E0,0E0,0E0,0E0,0E0,0E0,0E0,0E0,0E0,0E0,0E0,0E0,0E0,0E0,0E0,0E0,0E0,0E0,0E0,0E0,0E0,0E0,0E0,0E0,0E0,0E0,0E0,0E0,0E0,0E0,0E0,0E0,0E0,0E0,0E0,0E0,0E0,0E0,0E0,0E0,0E0,0E0,0E0,0E0,0E0,0E0,0E0,0E0,0E0,0E0,0E0,0E0,0E0,0E0,0E0,0E0,0E0,0E0,0E0,0E0,0E0],"parents":[2147483647,0,0,1,1,2,2,3,3,4,4,5,5,6,6,7,7,8,8,9,9,10,10,11,11,12,12,13,13,14,14,15,15,16,16,17,17,18,18,19,19,20,20,21,21,22,22,23,23,24,24,25,25,26,26,27,27,29,29,30,30,31,31,32,32,33,33,34,34,35,35,36,36,37,37,38,38,39,39,40,40,41,41,43,43,44,44,45,45,46,46,47,47,48,48,49,49,50,50,54,54,56,56,57,57,58,58,59,59,60,60,61,61,62,62,63,63,64,64,65,65,66,66,67,67,68,68,69,69,70,70,71,71,72,72,73,73,74,74,75,75,79,79,80,80,83,83,84,84,85,85,86,86,87,87,89,89,90,90,91,91,92,92,93,93,94,94,98,98,99,99,101,101,103,103,104,104,105,105,107,107,109,109,110,110,111,111,112,112,113,113,114,114,115,115,116,116,117,117,118,118,120,120,121,121,124,124,126,126,127,127,128,128,129,129,130,130,131,131,133,133,135,135,136,136,137,137,138,138,139,139,141,141,143,143,144,144,145,145,146,146,149,149,150,150,151,151,153,153,155,155,156,156,157,157,158,158,159,159,160,160,161,161,162,162,163,163,164,164,165,165,166,166,167,167,170,170,171,171,173,173,174,174,175,175,176,176,177,177,178,178,180,180,182,182,183,183,184,184],"right_children":[2,4,6,8,10,12,14,16,18,20,22,24,26,28,30,32,34,36,38,40,42,44,46,48,50,52,54,56,-1,58,60,62,64,66,68,70,72,74,76,78,80,82,-1,84,86,88,90,92,94,96,98,-1,-1,-1,100,-1,102,104,106,108,110,112,114,116,118,120,122,124,126,128,130,132,134,136,138,140,-1,-1,-1,142,144,-1,-1,146,148,150,152,154,-1,156,158,160,162,164,166,-1,-1,-1,168,170,-1,172,-1,174,176,178,-1,180,-1,182,184,186,188,190,192,194,196,198,200,-1,202,204,-1,-1,206,-1,208,210,212,214,216,218,-1,220,-1,222,224,226,228,230,-1,232,-1,234,236,238,240,-1,-1,242,244,246,-1,248,-1,250,252,254,256,258,260,262,264,266,268,270,272,274,-1,-1,276,278,-1,280,282,284,286,288,290,-1,292,-1,294,296,298,-1,-1,-1,-1,-1,-1,-1,-1,-1,-1,-1,-1,-1,-1,-1,-1,-1,-1,-1,-1,-1,-1,-1,-1,-1,-1,-1,-1,-1,-1,-1,-1,-1,-1,-1,-1,-1,-1,-1,-1,-1,-1,-1,-1,-1,-1,-1,-1,-1,-1,-1,-1,-1,-1,-1,-1,-1,-1,-1,-1,-1,-1,-1,-1,-1,-1,-1,-1,-1,-1,-1,-1,-1,-1,-1,-1,-1,-1,-1,-1,-1,-1,-1,-1,-1,-1,-1,-1,-1,-1,-1,-1,-1,-1,-1,-1,-1,-1,-1,-1,-1,-1,-1,-1,-1,-1,-1,-1,-1,-1,-1,-1,-1,-1],"split_conditions":[-1.2434853E0,-7.546768E-2,1.7309457E0,7.1219295E-1,1.3798338E0,1.9602994E0,-9.161485E-1,-4.9730006E-1,8.618444E-1,1.2770228E-1,5.112649E-1,1.9354963E0,7.3412234E-1,2.188829E0,1.0674714E0,3.8673887E-1,5.7674557E-1,-6.1313397E-1,9.510292E-1,9.6648425E-1,1.2062219E0,1.5367962E0,1.9359404E0,1.1671293E0,-1.0939951E0,1.4863313E0,-1.3917687E0,-1.736069E0,-0E0,1.1227307E0,-6.3398695E-1,1.7893332E0,3.137017E-1,2.706573E0,-1.4112282E0,6.383163E-2,2.3034096E0,-1.9807631E-1,2.1502454E0,1.2499573E0,1.3572686E0,-1.736069E0,-0E0,2.4171526E0,1.5803908E0,3.3753622E0,7.704486E-1,1.1235206E0,1.2499573E0,1.1757624E0,-2.5552553E-1,-1.9581425E-1,5.4825747E-1,-0E0,2.6316154E0,-0E0,1.9722832E0,1.3037463E0,1.4613028E0,2.691654E0,1.2774004E0,-1.5404533E0,-8.9648014E-1,-1.1620297E0,8.1014985E-1,-2.237121E0,2.4156241E-1,-3.6864176E-1,9.600236E-1,1.3627912E0,-7.107129E-1,-1.2867584E0,1.034681E0,-1.5682585E0,1.2843075E0,1.4613028E0,-0E0,-8.820145E-1,-0E0,2.5449138E0,-1.5869905E0,-0E0,-1.0196079E0,1.2622929E0,3.3813605E-1,2.7312195E-1,1.61196E0,1.0764952E0,-0E0,1.9602994E0,2.4455562E0,-1.0646892E0,-1.4044598E-1,-1.8585934E-1,1.7850016E0,-6.921054E-1,-0E0,-0E0,3.0154848E-1,-1.7289591E0,-0E0,1.4537536E0,-0E0,2.551069E-1,2.1470444E0,9.9540734E-1,-0E0,-2.0108256E0,-0E0,5.705809E-1,1.300152E0,-7.163744E-2,-1.3483666E0,1.238632E0,4.7670066E-1,-2.774165E-1,-1.3787035E0,-8.194519E-1,1.0643399E0,-0E0,2.3095224E0,8.1822634E-1,1.6565374E-1,-0E0,2.706573E0,-3.6080323E-2,-1.870635E-1,-1.1620297E0,9.5846653E-1,1.1273139E0,9.9762034E-1,1.0764952E0,-0E0,9.224973E-1,-0E0,-4.4454494E-1,9.7488827E-1,-1.2867584E0,-1.5126358E0,-1.4953555E0,-0E0,-1.2576905E0,2.22851E-3,1.7009902E0,1.4708403E0,1.5479096E0,2.390345E-1,3.4941554E-1,-0E0,2.0876555E0,-1.3328193E0,-1.6288713E0,-0E0,-1.7634515E0,-0E0,1.8095087E0,-1.4503876E0,-1.8605953E0,1.0550512E0,-1.0887796E0,-7.706221E-1,8.92911E-1,-8.9974815E-1,-1.0525676E0,-1.1742443E-1,1.0939943E0,0E0,1.2774004E0,-0E0,-0E0,-1.986161E0,2.183119E0,-0E0,1.300152E0,2.547155E-1,2.574531E0,-7.524705E-1,1.7747451E0,-7.524705E-1,-0E0,2.9218705E0,-0E0,1.1454937E0,1.4219693E0,2.0173159E0,-3.055147E-1,1.6952476E-2,-6.542451E-1,-1.6184437E-1,-3.3610544E-1,-0E0,2.835534E-1,-6.4104125E-2,-1.1998339E-1,4.031974E-1,-5.3803647E-1,-1.453017E-2,4.7857136E-1,-3.4569287E-1,7.043144E-1,-0E0,-8.090549E-1,-0E0,-3.4982735E-1,-0E0,-7.374355E-1,-0E0,8.5758495E-1,-0E0,3.0247257E-3,-3.5576925E-1,4.3235883E-1,-0E0,6.4693815E-1,-0E0,-1.9674632E-1,2.2260527E-1,-4.8829487E-1,-0E0,8.2254803E-1,-0E0,2.9532796E-1,-1.6447118E-1,-0E0,1.0492992E0,-5.734702E-1,-0E0,-3.9733627E-1,5.0859475E-1,-0E0,1.0091766E0,-7.293745E-1,-0E0,-8.014892E-1,-0E0,-0E0,1.0920752E0,-6.107773E-1,-0E0,4.9895164E-1,-3.766083E-1,8.995123E-1,-0E0,-7.6599395E-1,-0E0,1.2864158E-1,1.2723253E0,-0E0,-1.0263805E0,-5.578506E-1,-0E0,-0E0,1.2062333E0,-0E0,-8.761548E-1,4.9233735E-1,-3.106373E-1,3.9104607E-2,4.5402664E-1,5.055978E-2,-3.1209756E-2,4.8890558E-1,4.971187E-2,-3.97417E-2,2.198572E-1,-1.3956322E-1,-6.388514E-1,3.517654E-1,-2.1089953E-1,-2.0607287E-2,1.23289324E-1,-0E0,-4.2546755E-1,-4.5689398E-1,-0E0,-0E0,-8.830163E-1,9.156174E-1,-0E0,-1.517533E-1,1.16051584E-1,4.0177238E-1,-0E0,-2.439828E-1,2.2322609E-1,-0E0,4.2131612E-1,1.1578706E-1,9.6304893E-1,-0E0,5.201596E-1,-8.012665E-1,-0E0,5.289887E-1,-0E0,1.3596219E-1,-1.7440504E-1,-3.6103114E-1,-0E0],"split_indices":[23,22,6,6,6,7,8,22,7,22,22,2,22,7,22,7,6,22,6,6,9,7,6,8,1,6,15,3,0,7,23,14,6,14,23,7,14,22,0,8,7,3,0,14,6,20,22,8,8,6,11,0,0,0,10,0,4,12,24,6,12,22,6,22,7,25,6,22,7,14,22,23,24,23,7,24,0,0,0,14,23,0,0,7,22,22,24,8,0,7,6,9,3,12,8,0,0,0,4,2,0,9,0,13,24,22,0,24,0,8,24,7,23,0,0,6,23,22,24,0,25,18,0,0,14,0,22,22,10,18,6,8,0,1,0,22,7,23,23,10,0,23,0,7,7,3,22,0,0,20,23,23,0,3,0,7,21,2,22,9,2,23,1,6,6,22,20,12,0,0,19,10,0,24,23,0,23,6,23,0,14,0,8,22,0,0,0,0,0,0,0,0,0,0,0,0,0,0,0,0,0,0,0,0,0,0,0,0,0,0,0,0,0,0,0,0,0,0,0,0,0,0,0,0,0,0,0,0,0,0,0,0,0,0,0,0,0,0,0,0,0,0,0,0,0,0,0,0,0,0,0,0,0,0,0,0,0,0,0,0,0,0,0,0,0,0,0,0,0,0,0,0,0,0,0,0,0,0,0,0,0,0,0,0,0,0,0,0,0,0,0,0,0,0,0,0,0,0,0],"split_type":[0,0,0,0,0,0,0,0,0,0,0,0,0,0,0,0,0,0,0,0,0,0,0,0,0,0,0,0,0,0,0,0,0,0,0,0,0,0,0,0,0,0,0,0,0,0,0,0,0,0,0,0,0,0,0,0,0,0,0,0,0,0,0,0,0,0,0,0,0,0,0,0,0,0,0,0,0,0,0,0,0,0,0,0,0,0,0,0,0,0,0,0,0,0,0,0,0,0,0,0,0,0,0,0,0,0,0,0,0,0,0,0,0,0,0,0,0,0,0,0,0,0,0,0,0,0,0,0,0,0,0,0,0,0,0,0,0,0,0,0,0,0,0,0,0,0,0,0,0,0,0,0,0,0,0,0,0,0,0,0,0,0,0,0,0,0,0,0,0,0,0,0,0,0,0,0,0,0,0,0,0,0,0,0,0,0,0,0,0,0,0,0,0,0,0,0,0,0,0,0,0,0,0,0,0,0,0,0,0,0,0,0,0,0,0,0,0,0,0,0,0,0,0,0,0,0,0,0,0,0,0,0,0,0,0,0,0,0,0,0,0,0,0,0,0,0,0,0,0,0,0,0,0,0,0,0,0,0,0,0,0,0,0,0,0,0,0,0,0,0,0,0,0,0,0,0,0,0,0,0,0,0,0,0,0,0,0,0,0,0,0,0,0,0,0,0,0,0,0],"sum_hessian":[7.244135E4,7.238852E3,6.52025E4,5.4717144E3,1.7671378E3,6.3081535E4,2.1209656E3,3.9287688E3,1.5429454E3,6.909679E2,1.0761699E3,6.2853812E4,2.2771988E2,2.1713763E2,1.903828E3,3.4713855E3,4.5738333E2,1.0898398E3,4.531056E2,3.9180612E2,2.9916177E2,6.152836E2,4.608863E2,6.2487754E4,3.6605902E2,2.732998E1,2.0038991E2,1.8336012E2,3.3777508E1,1.1689657E3,7.3486224E2,2.0404484E3,1.430937E3,3.0213254E2,1.5525081E2,5.947168E2,4.9512308E2,2.2719983E2,2.2590575E2,1.6635934E2,2.254468E2,2.783539E2,2.0807852E1,3.7274704E2,2.4253658E2,1.4404105E2,3.1684525E2,5.383588E4,8.651875E3,1.1659567E2,2.4946336E2,1.3979661E1,1.335032E1,2.1402197E0,1.9824968E2,6.565527E0,1.767946E2,7.3744366E2,4.3152206E2,1.7645486E2,5.584074E2,1.2325249E3,8.079234E2,9.865817E2,4.4435538E2,2.188273E2,8.330523E1,7.8623474E1,7.6627335E1,3.707845E2,2.239323E2,4.400823E2,5.5040775E1,1.5317615E2,7.4023674E1,2.2002888E2,5.8768697E0,1.6422511E2,2.1342182E0,1.1740326E2,1.08043526E2,5.898211E0,2.7245572E2,3.1548148E2,5.726556E1,1.0330677E2,1.3922981E2,1.3751988E2,6.521153E0,1.2721459E2,1.8963065E2,5.214795E4,1.6879297E3,1.8043646E3,6.8475107E3,1.1303734E2,3.5583358E0,9.308796E1,1.563754E2,1.9643362E2,1.8160532E0,1.7042218E2,6.3724246E0,2.103001E2,5.271436E2,3.563673E2,7.515473E1,1.3457808E2,4.1876778E1,1.4690695E2,4.1150046E2,9.3811743E2,2.9440753E2,2.3526337E2,5.7266003E2,5.4640027E2,4.4018146E2,2.5414445E2,1.9021092E2,4.431546E0,2.1439577E2,6.065334E1,2.2651888E1,3.206959E1,4.6553886E1,3.0345938E1,4.6281395E1,2.9415326E2,7.6631226E1,1.572045E2,6.6727806E1,3.7425104E2,6.583126E1,4.5709675E1,9.331101E0,5.7178013E1,9.599814E1,3.6545216E1,3.7478455E1,2.0617542E2,1.3853459E1,9.756816E1,1.9835094E1,2.9389484E1,7.8654045E1,1.9945963E2,1.16021866E2,3.8008938E1,1.9256622E1,3.5119358E1,6.8187416E1,1.3165009E2,7.5797267E0,1.3496443E2,2.5554638E0,7.16831E1,5.5531498E1,8.625581E1,1.0337483E2,8.561218E3,4.358673E4,6.7311194E2,1.01481775E3,9.71732E2,8.326326E2,6.5978525E3,2.4965843E2,9.314288E1,6.3232517E1,4.9748807E0,1.9145876E2,1.6601752E2,4.4046617E0,1.17352776E2,9.294733E1,4.5837766E2,6.8765945E1,2.8734344E2,6.902388E1,4.412603E0,1.3016548E2,5.4539036E1,9.236791E1,2.5141138E2,1.6008908E2,4.1804556E2,5.2007184E2,1.4983356E2,1.4457396E2,1.9642871E2,3.8834652E1,2.90785E2,2.8187503E2,2.0543886E2,3.409614E2,2.225864E2,2.1759506E2,1.4795044E2,1.06194E2,1.7422623E2,1.5984701E1,2.1120517E2,3.1905859E0,5.00765E1,1.0576839E1,3.97507E1,6.8031826E0,3.049701E1,1.5784387E1,1.9107297E2,1.0308029E2,6.465031E1,1.1980924E1,1.4467851E2,1.2525982E1,3.549841E1,3.1229393E1,3.618366E2,1.2414423E1,4.3302425E1,2.407248E0,2.5069952E1,3.210806E1,3.0590065E1,6.540808E1,2.9299143E1,7.2460732E0,1.6664408E1,2.0814049E1,1.3075521E1,1.930999E2,9.016101E1,7.407152E0,1.843281E1,1.0956676E1,3.1762745E1,4.6891296E1,1.8701125E2,1.2448367E1,5.775626E1,5.8265602E1,3.4066628E1,1.0527278E0,5.5513004E1,1.267441E1,3.1546532E1,1.0010355E2,4.0971894E0,1.3086723E2,5.2564987E1,1.911811E1,1.1300703E0,5.440143E1,1.9732853E0,8.428253E1,5.2563595E1,5.081124E1,8.122972E3,4.382456E2,1.1021335E4,3.2565396E4,4.6719675E2,2.059152E2,3.1178427E2,7.0303345E2,2.919578E2,6.7977423E2,2.4731825E2,5.853144E2,5.2613477E3,1.3365049E3,5.8479317E1,1.9117911E2,8.6655014E1,6.4878683E0,2.5296235E0,1.8892912E2,1.6352129E2,2.4962213E0,5.5378582E1,6.1974194E1,8.792216E1,5.0251656E0,4.3072293E2,2.7654703E1,2.567001E1,4.309594E1,4.176813E1,2.4557532E2,3.875658E1,3.0267298E1,1.25749374E2,4.4161E0,8.19971E1,1.0370808E1,1.5882768E2,9.258369E1,1.3538141E2,2.4707674E1],"tree_param":{"num_deleted":"0","num_feature":"26","num_nodes":"299","size_leaf_vector":"1"}},{"base_weights":[-8.319646E-3,-2.1078894E-1,-5.9746706E-4,6.471597E-1,-2.3117748E-1,-1.0883278E-2,7.766658E-2,-4.406259E-2,-3.2033515E-1,-7.161965E-3,-2.6452753E-1,-5.5937093E-2,9.993894E-2,-2.092422E-1,8.0640174E-2,-3.739789E-1,-0E0,-2.364663E-2,3.131848E-2,-0E0,-2.8852347E-1,1.2200024E-1,-1.1270451E-1,1.3363892E-1,-4.2041793E-2,1.710087E-1,-2.9563835E-1,-0E0,3.2005635E-1,-4.094322E-1,1.515233E-1,-1.4645165E-1,6.299354E-2,-4.8048407E-2,4.5477126E-2,1.0493121E-1,-8.779841E-2,-0E0,-3.192436E-1,-0E0,3.3402154E-1,2.1054879E-2,-1.7422122E-1,1.0835483E-1,3.859911E-1,-1.4125931E-1,1.1010755E-1,3.1669256E-1,-0E0,-4.0433738E-1,9.046693E-2,2.1712106E-1,-1.7980179E-1,1.158957E-2,6.459972E-1,-3.15141E-1,-6.955165E-1,3.3371115E-1,-0E0,-0E0,-2.8979087E-1,3.799482E-1,-9.3135715E-2,5.6826835E-3,-9.629512E-2,1.2528668E-1,-5.0364677E-2,-2.87707E-3,2.0072582E-1,-2.0383757E-1,-3.5544734E-2,-3.353498E-1,-0E0,4.2005536E-1,-0E0,-6.586552E-2,1.1240346E-1,-0E0,-2.3331927E-1,1.2773848E-1,-3.9155903E-1,8.6488616E-1,1.1558144E-1,-2.4510127E-2,-3.3565742E-1,1.596487E-1,-0E0,-4.2026544E-1,-0E0,-0E0,3.9021465E-1,-0E0,3.0471486E-1,-3.2753214E-1,1.7224279E-1,-6.5646246E-2,4.0561187E-1,7.4473614E-1,-0E0,-4.3080223E-1,-0E0,-0E0,-7.253406E-1,-0E0,4.9008673E-1,-0E0,-4.3663478E-1,4.7868344E-1,-0E0,-2.4059221E-1,-0E0,-5.5706196E-2,1.1207E-1,-7.221141E-2,-1.8559435E-1,2.1980408E-1,-2.5861584E-2,1.234909E-1,-1.1916542E-1,-1.434805E-1,5.6576338E-2,2.9329485E-1,5.411692E-2,-2.6173845E-1,-3.9345987E-2,-6.267856E-2,2.1447146E-1,-3.4596792E-1,-0E0,-0E0,5.1339704E-1,2.555373E-1,-5.606939E-2,-2.5765803E-1,-0E0,7.31521E-2,2.1585035E-1,-4.9264827E-1,-0E0,-0E0,9.9449617E-1,-1.3238543E-1,3.2188973E-1,-2.3714021E-1,8.205663E-2,-3.913163E-1,-0E0,-0E0,2.0325853E-1,-2.1205692E-1,2.2568181E-2,-0E0,-4.4278035E-1,-0E0,5.18367E-1,-5.1796013E-1,5.437492E-2,-0E0,3.2453611E-1,2.6773852E-1,-5.014792E-1,-0E0,5.016292E-1,-0E0,7.8905493E-1,-5.8557165E-1,-2.5081274E-1,-1.318339E-1,5.0574934E-1,-0E0,-7.574011E-1,-0E0,-5.0514376E-1,-0E0,6.4740103E-1,-0E0,-2.9887098E-1,6.287814E-2,-8.679621E-2,7.0071764E-2,1.6222441E-1,-9.3167536E-2,7.487772E-2,1.4203903E-1,-2.1989626E-1,3.2121396E-1,4.9776673E-2,1.0731625E-1,-1.4269072E-1,3.3222577E-1,1.5141612E-2,-1.186009E-2,-1.9299406E-1,-2.354974E-1,1.3718445E-2,-3.849128E-2,1.4748314E-1,1.6492002E-1,4.064286E-1,-1.2548886E-1,1.00292675E-1,-2.9131734E-1,-0E0,1.568505E-1,-1.583066E-1,7.325477E-2,-1.14127874E-1,3.2071105E-1,-0E0,-0E0,-3.6029837E-1,6.066761E-1,-0E0,-0E0,3.2524496E-1,-0E0,-2.8478652E-1,1.508395E-1,1.8190157E-2,2.5991544E-1,-0E0,-0E0,-5.7423466E-1,-0E0,1.037355E0,-0E0,-2.9614523E-1,3.7102664E-1,-0E0,-3.3166656E-1,-0E0,2.4510683E-1,-1.8214586E-1,-4.2287615E-1,-0E0,-0E0,3.0031186E-1],"categories":[],"categories_nodes":[],"categories_segments":[],"categories_sizes":[],"default_left":[0,0,0,0,0,0,0,0,0,0,0,0,0,0,0,0,0,0,0,0,0,0,0,0,0,0,0,0,0,0,0,0,0,0,0,0,0,0,0,0,0,0,0,0,0,0,0,0,0,0,0,0,0,0,0,0,0,0,0,0,0,0,0,0,0,0,0,0,0,0,0,0,0,0,0,0,0,0,0,0,0,0,0,0,0,0,0,0,0,0,0,0,0,0,0,0,0,0,0,0,0,0,0,0,0,0,0,0,0,0,0,0,0,0,0,0,0,0,0,0,0,0,0,0,0,0,0,0,0,0,0,0,0,0,0,0,0,0,0,0,0,0,0,0,0,0,0,0,0,0,0,0,0,0,0,0,0,0,0,0,0,0,0,0,0,0,0,0,0,0,0,0,0,0,0,0,0,0,0,0,0,0,0,0,0,0,0,0,0,0,0,0,0,0,0,0,0,0,0,0,0,0,0,0,0,0,0,0,0,0,0,0,0,0,0,0,0,0,0,0,0,0,0,0,0,0,0,0,0,0,0,0,0,0,0,0,0],"id":8,"left_children":[1,3,5,-1,7,9,11,13,15,17,19,21,23,25,27,29,31,33,35,-1,37,39,41,43,45,47,49,51,53,55,57,59,61,63,65,67,69,-1,71,-1,73,75,77,79,81,83,85,-1,-1,87,89,91,93,95,97,99,101,103,-1,-1,105,107,109,111,113,115,117,119,121,123,125,127,-1,129,-1,-1,131,-1,133,135,137,139,141,143,145,147,149,151,-1,-1,153,-1,-1,155,157,159,161,163,-1,165,167,-1,169,-1,-1,-1,171,173,-1,175,-1,177,179,181,183,185,187,189,191,193,195,197,199,201,203,205,207,209,-1,-1,211,213,-1,215,-1,217,219,221,-1,-1,223,225,227,229,231,233,-1,-1,235,-1,-1,-1,-1,-1,-1,-1,-1,-1,-1,-1,-1,-1,-1,-1,-1,-1,-1,-1,-1,-1,-1,-1,-1,-1,-1,-1,-1,-1,-1,-1,-1,-1,-1,-1,-1,-1,-1,-1,-1,-1,-1,-1,-1,-1,-1,-1,-1,-1,-1,-1,-1,-1,-1,-1,-1,-1,-1,-1,-1,-1,-1,-1,-1,-1,-1,-1,-1,-1,-1,-1,-1,-1,-1,-1,-1,-1,-1,-1,-1,-1,-1,-1,-1,-1,-1,-1,-1],"loss_changes":[1.0964292E2,4.2439445E1,5.4814423E1,0E0,3.8544876E1,5.4867767E1,2.3982471E1,1.9306051E1,2.9096115E1,3.811437E1,6.893223E0,1.0852963E1,3.3665543E1,1.52242985E1,1.197724E1,3.0049622E1,2.3465557E0,7.144602E1,1.5700443E2,0E0,4.2523575E0,6.149408E0,8.636818E0,3.0250656E1,1.9508923E1,2.501244E0,1.8582401E1,1.2927038E1,8.082801E0,2.4674194E1,3.7620807E0,3.546783E0,1.2338598E1,8.230317E1,8.451126E1,1.1666421E2,3.86504E1,0E0,5.8242035E0,0E0,4.1209373E0,2.352347E0,7.9522057E0,4.7505226E1,4.984932E1,1.464679E1,3.9532518E0,0E0,0E0,3.251625E0,5.4801445E0,4.3068495E0,1.3005552E1,6.7467484E0,4.200569E0,3.7268013E1,7.7373505E0,4.374159E0,0E0,0E0,4.8530207E0,4.8595295E0,3.606459E0,9.705982E1,3.3077682E1,8.814652E1,5.897788E1,4.429616E1,7.683301E1,1.6352997E1,3.082042E1,3.8064117E0,0E0,5.026828E0,0E0,0E0,6.2643166E0,0E0,3.8888206E0,2.0801651E1,7.2279606E0,1.7579811E1,1.8908329E1,1.4152332E1,6.9896107E0,4.5471287E0,2.206864E0,3.166893E0,0E0,0E0,2.7982888E0,0E0,0E0,1.734869E1,2.6721778E0,1.4146002E1,2.8258224E0,2.613493E0,0E0,1.1792587E1,1.960227E1,0E0,8.289398E0,0E0,0E0,0E0,2.1336308E0,3.9415855E0,0E0,2.0992937E0,0E0,3.461756E1,9.076088E0,4.0974762E1,3.9753662E1,6.0823654E1,3.6111485E1,2.721704E1,2.6232685E1,2.530437E1,3.2272095E1,4.575946E1,1.9353462E1,1.1124474E1,1.4007153E1,3.0748209E1,1.0343248E1,3.6732254E0,0E0,0E0,3.5499E0,3.4765291E0,0E0,3.5054111E0,0E0,1.1719528E1,1.4855064E1,8.935413E0,0E0,0E0,8.191757E0,5.7724924E0,4.0471535E0,7.115369E0,1.5758882E1,4.933399E0,0E0,0E0,3.8990479E0,0E0,0E0,0E0,0E0,0E0,0E0,0E0,0E0,0E0,0E0,0E0,0E0,0E0,0E0,0E0,0E0,0E0,0E0,0E0,0E0,0E0,0E0,0E0,0E0,0E0,0E0,0E0,0E0,0E0,0E0,0E0,0E0,0E0,0E0,0E0,0E0,0E0,0E0,0E0,0E0,0E0,0E0,0E0,0E0,0E0,0E0,0E0,0E0,0E0,0E0,0E0,0E0,0E0,0E0,0E0,0E0,0E0,0E0,0E0,0E0,0E0,0E0,0E0,0E0,0E0,0E0,0E0,0E0,0E0,0E0,0E0,0E0,0E0,0E0,0E0,0E0,0E0,0E0,0E0,0E0,0E0,0E0,0E0,0E0,0E0,0E0,0E0,0E0],"parents":[2147483647,0,0,1,1,2,2,4,4,5,5,6,6,7,7,8,8,9,9,10,10,11,11,12,12,13,13,14,14,15,15,16,16,17,17,18,18,20,20,21,21,22,22,23,23,24,24,25,25,26,26,27,27,28,28,29,29,30,30,31,31,32,32,33,33,34,34,35,35,36,36,38,38,40,40,41,41,42,42,43,43,44,44,45,45,46,46,49,49,50,50,51,51,52,52,53,53,54,54,55,55,56,56,57,57,60,60,61,61,62,62,63,63,64,64,65,65,66,66,67,67,68,68,69,69,70,70,71,71,73,73,76,76,78,78,79,79,80,80,81,81,82,82,83,83,84,84,85,85,86,86,87,87,90,90,93,93,94,94,95,95,96,96,97,97,99,99,100,100,102,102,106,106,107,107,109,109,111,111,112,112,113,113,114,114,115,115,116,116,117,117,118,118,119,119,120,120,121,121,122,122,123,123,124,124,125,125,126,126,127,127,130,130,131,131,133,133,135,135,136,136,137,137,140,140,141,141,142,142,143,143,144,144,145,145,148,148],"right_children":[2,4,6,-1,8,10,12,14,16,18,20,22,24,26,28,30,32,34,36,-1,38,40,42,44,46,48,50,52,54,56,58,60,62,64,66,68,70,-1,72,-1,74,76,78,80,82,84,86,-1,-1,88,90,92,94,96,98,100,102,104,-1,-1,106,108,110,112,114,116,118,120,122,124,126,128,-1,130,-1,-1,132,-1,134,136,138,140,142,144,146,148,150,152,-1,-1,154,-1,-1,156,158,160,162,164,-1,166,168,-1,170,-1,-1,-1,172,174,-1,176,-1,178,180,182,184,186,188,190,192,194,196,198,200,202,204,206,208,210,-1,-1,212,214,-1,216,-1,218,220,222,-1,-1,224,226,228,230,232,234,-1,-1,236,-1,-1,-1,-1,-1,-1,-1,-1,-1,-1,-1,-1,-1,-1,-1,-1,-1,-1,-1,-1,-1,-1,-1,-1,-1,-1,-1,-1,-1,-1,-1,-1,-1,-1,-1,-1,-1,-1,-1,-1,-1,-1,-1,-1,-1,-1,-1,-1,-1,-1,-1,-1,-1,-1,-1,-1,-1,-1,-1,-1,-1,-1,-1,-1,-1,-1,-1,-1,-1,-1,-1,-1,-1,-1,-1,-1,-1,-1,-1,-1,-1,-1,-1,-1,-1,-1,-1,-1],"split_conditions":[-1.4951557E0,-1.7077905E0,1.2519978E0,6.471597E-1,-1.2477376E0,1.1943296E0,-1.1587833E0,1.7044222E-3,2.4171526E0,8.604974E-1,-1.9074516E0,-1.0322255E0,1.170764E0,-3.4084597E0,3.141114E-1,2.4455562E0,-8.676754E-2,4.1804644E-1,1.5466352E-1,-0E0,-8.8138735E-1,4.5469248E-1,1.3925037E0,1.0492272E0,3.2148305E-1,5.310974E-1,2.3587394E0,-2.1636488E0,2.7218428E-1,6.451793E-2,9.1830987E-1,-1.0745511E0,-2.1954173E-1,4.4218448E-1,-6.867089E-1,-3.0839708E-1,-5.4301087E-2,-0E0,1.9197896E0,-0E0,5.234325E-1,-8.480351E-1,-1.9901366E0,1.0033016E0,1.1030391E0,7.5725E-1,4.858707E-1,3.1669256E-1,-0E0,2.7226548E0,-9.399443E-1,-6.715947E-1,1.6406351E0,6.267958E-1,3.7770513E-1,1.1188899E0,-1.2482824E0,4.467199E-1,-0E0,-0E0,-8.097422E-1,1.0495598E0,1.6888686E0,3.5889712E-1,7.796818E-1,5.6703836E-1,-9.2451906E-1,-1.0499954E0,5.417653E-1,6.296487E-1,2.0780842E0,2.2850494E0,-0E0,-1.3610357E0,-0E0,-6.586552E-2,-1.2311177E0,-0E0,1.4567229E0,6.376129E-1,7.2274685E-1,-5.842517E-1,1.1294141E0,-5.609533E-1,9.41502E-1,-1.5142446E0,6.118368E-1,-6.9454426E-1,-0E0,-0E0,-7.300984E-1,-0E0,3.0471486E-1,9.9762034E-1,-6.7303276E-1,-1.7387978E0,-9.7358084E-1,-1.6084172E0,-0E0,9.0208775E-1,1.3572686E0,-0E0,-1.9403794E0,-0E0,4.9008673E-1,-0E0,-1.079704E0,2.2101301E-1,-0E0,-3.7798533E-1,-0E0,-1.2682614E0,-6.7578757E-1,9.899599E-1,-7.596773E-1,8.6222047E-1,1.0134535E0,-2.9327863E-1,-7.05647E-2,-5.121992E-1,-5.5864227E-1,-8.921595E-1,-1.2310777E0,1.0656337E0,3.1950407E-2,-8.1256586E-1,4.2275116E-1,-1.3839982E0,-0E0,-0E0,1.7904632E0,-9.5773166E-1,-5.606939E-2,-1.2270904E0,-0E0,-1.7181794E-1,5.5718243E-1,-1.4108757E0,-0E0,-0E0,-1.3922795E0,3.8569171E-3,1.1534789E0,5.569018E-1,1.2017225E-1,1.7195704E0,-0E0,-0E0,-1.4044598E-1,-2.1205692E-1,2.2568181E-2,-0E0,-4.4278035E-1,-0E0,5.18367E-1,-5.1796013E-1,5.437492E-2,-0E0,3.2453611E-1,2.6773852E-1,-5.014792E-1,-0E0,5.016292E-1,-0E0,7.8905493E-1,-5.8557165E-1,-2.5081274E-1,-1.318339E-1,5.0574934E-1,-0E0,-7.574011E-1,-0E0,-5.0514376E-1,-0E0,6.4740103E-1,-0E0,-2.9887098E-1,6.287814E-2,-8.679621E-2,7.0071764E-2,1.6222441E-1,-9.3167536E-2,7.487772E-2,1.4203903E-1,-2.1989626E-1,3.2121396E-1,4.9776673E-2,1.0731625E-1,-1.4269072E-1,3.3222577E-1,1.5141612E-2,-1.186009E-2,-1.9299406E-1,-2.354974E-1,1.3718445E-2,-3.849128E-2,1.4748314E-1,1.6492002E-1,4.064286E-1,-1.2548886E-1,1.00292675E-1,-2.9131734E-1,-0E0,1.568505E-1,-1.583066E-1,7.325477E-2,-1.14127874E-1,3.2071105E-1,-0E0,-0E0,-3.6029837E-1,6.066761E-1,-0E0,-0E0,3.2524496E-1,-0E0,-2.8478652E-1,1.508395E-1,1.8190157E-2,2.5991544E-1,-0E0,-0E0,-5.7423466E-1,-0E0,1.037355E0,-0E0,-2.9614523E-1,3.7102664E-1,-0E0,-3.3166656E-1,-0E0,2.4510683E-1,-1.8214586E-1,-4.2287615E-1,-0E0,-0E0,3.0031186E-1],"split_indices":[23,23,2,0,22,2,9,6,14,9,13,16,9,22,7,6,6,2,2,0,18,3,2,9,20,0,14,22,6,22,22,12,22,0,9,6,16,0,0,0,1,12,13,9,9,3,6,0,0,25,12,20,14,7,1,6,20,13,0,0,4,24,6,3,22,14,8,2,24,24,14,5,0,4,0,0,9,0,4,0,13,7,9,3,24,8,16,0,0,0,2,0,0,6,18,22,14,17,0,7,7,0,24,0,0,0,24,6,0,0,0,2,1,7,6,2,8,23,3,12,1,8,2,2,6,6,21,21,0,0,2,23,0,17,0,16,1,8,0,0,16,13,10,13,6,0,0,0,3,0,0,0,0,0,0,0,0,0,0,0,0,0,0,0,0,0,0,0,0,0,0,0,0,0,0,0,0,0,0,0,0,0,0,0,0,0,0,0,0,0,0,0,0,0,0,0,0,0,0,0,0,0,0,0,0,0,0,0,0,0,0,0,0,0,0,0,0,0,0,0,0,0,0,0,0,0,0,0,0,0,0,0,0,0,0,0,0],"split_type":[0,0,0,0,0,0,0,0,0,0,0,0,0,0,0,0,0,0,0,0,0,0,0,0,0,0,0,0,0,0,0,0,0,0,0,0,0,0,0,0,0,0,0,0,0,0,0,0,0,0,0,0,0,0,0,0,0,0,0,0,0,0,0,0,0,0,0,0,0,0,0,0,0,0,0,0,0,0,0,0,0,0,0,0,0,0,0,0,0,0,0,0,0,0,0,0,0,0,0,0,0,0,0,0,0,0,0,0,0,0,0,0,0,0,0,0,0,0,0,0,0,0,0,0,0,0,0,0,0,0,0,0,0,0,0,0,0,0,0,0,0,0,0,0,0,0,0,0,0,0,0,0,0,0,0,0,0,0,0,0,0,0,0,0,0,0,0,0,0,0,0,0,0,0,0,0,0,0,0,0,0,0,0,0,0,0,0,0,0,0,0,0,0,0,0,0,0,0,0,0,0,0,0,0,0,0,0,0,0,0,0,0,0,0,0,0,0,0,0,0,0,0,0,0,0,0,0,0,0,0,0,0,0,0,0,0,0],"sum_hessian":[7.146922E4,2.5684553E3,6.890076E4,4.1099636E1,2.5273557E3,6.10179E4,7.882863E3,8.566372E2,1.6707185E3,6.0184613E4,8.3328406E2,1.0600303E3,6.8228325E3,4.0009204E2,4.5654514E2,1.4311703E3,2.3954831E2,4.231919E4,1.7865422E4,5.162997E1,7.816541E2,2.1100066E2,8.4902966E2,5.571438E3,1.2513949E3,5.0831337E1,3.492607E2,3.200039E2,1.3654123E2,1.3606138E3,7.0556435E1,6.532194E1,1.7422636E2,3.1386854E4,1.0932338E4,1.1094378E4,6.7710435E3,1.0330393E2,6.7835016E2,1.3640118E2,7.4599464E1,2.1832744E2,6.307022E2,5.113062E3,4.583757E2,7.9767E2,4.5372488E2,3.26764E1,1.8154938E1,2.9237637E2,5.688435E1,1.2064034E2,1.9936356E2,9.12342E1,4.5307034E1,1.0654275E3,2.9518637E2,4.0390114E1,3.0166319E1,1.3850505E1,5.147143E1,7.39058E1,1.0032057E2,1.4755546E4,1.6631309E4,6.020338E3,4.912E3,5.175323E3,5.9190547E3,2.033931E3,4.7371123E3,6.6560724E2,1.274295E1,6.684897E1,7.7504945E0,5.7209793E1,1.6111765E2,1.373861E2,4.933161E2,4.9486323E3,1.6442992E2,1.4413956E2,3.1423618E2,5.3754156E2,2.601284E2,3.6568304E2,8.8041824E1,2.883005E2,4.0758543E0,2.729912E1,2.9585232E1,1.7928345E1,1.02712E2,1.6093242E2,3.8431145E1,6.202985E1,2.9204351E1,3.9187363E1,6.1196723E0,7.66294E2,2.9913345E2,9.874474E0,2.853119E2,8.814833E0,3.1575281E1,8.938945E0,4.2532486E1,6.406993E1,9.835868E0,6.883629E1,3.148428E1,9.299947E3,5.4555986E3,1.3201087E4,3.4302212E3,3.7419844E3,2.2783535E3,1.349243E3,3.5627568E3,1.5838016E3,3.5915215E3,3.58026E3,2.3387944E3,1.4550497E3,5.7888135E2,4.316176E3,4.209367E2,6.5657465E2,9.032602E0,6.3322263E0,6.0516743E1,1.1640733E2,4.4710308E1,4.6129666E2,3.201945E1,3.1370105E3,1.8116217E3,1.2997105E2,3.4458874E1,1.9784163E1,1.2435539E2,1.22324E2,1.9191217E2,2.0670108E2,3.308405E2,2.343953E2,2.5733082E1,3.3851707E1,3.3183133E2,3.8400654E1,4.964117E1,1.3412069E1,2.7488843E2,6.7393413E0,2.284589E1,1.2248191E2,3.84505E1,9.417964E0,2.901318E1,2.4330688E1,3.769916E1,2.3419244E0,2.6862429E1,1.1725739E0,3.801479E1,3.7002466E2,3.9626935E2,2.5017563E2,4.8957817E1,1.0021642E1,2.7529025E2,4.9213443E0,3.761114E1,2.4171556E1,3.9898373E1,4.2458944E0,6.459039E1,1.8628282E3,7.437119E3,3.0907913E3,2.3648074E3,1.1617558E4,1.5835286E3,2.9448834E2,3.135733E3,2.3015557E3,1.4404287E3,1.0250643E3,1.2532893E3,4.2244543E2,9.267976E2,1.5120873E3,2.0506697E3,1.0360054E3,5.477963E2,1.7046317E3,1.8868898E3,1.7300784E3,1.8501816E3,4.305156E2,1.9082789E3,1.3037292E3,1.513204E2,1.855747E2,3.9330664E2,1.130554E3,3.1856216E3,2.8328E2,1.3765672E2,2.3674093E1,6.329005E2,5.0144287E1,1.0372455E1,1.5513351E1,1.0089398E2,4.229237E1,4.1900427E2,1.2171748E3,1.9198358E3,1.4662103E3,3.4541132E2,9.850341E0,1.20120705E2,3.2601497E0,1.2109524E2,4.006168E1,8.2262314E1,1.7137253E2,2.0539644E1,1.654653E2,4.123578E1,2.2843588E2,1.0240464E2,2.2686537E2,7.5299172E0,1.4200836E2,1.8982298E2],"tree_param":{"num_deleted":"0","num_feature":"26","num_nodes":"237","size_leaf_vector":"1"}},{"base_weights":[-3.3959823E-3,3.275478E-2,-2.1164523E-2,6.1933443E-2,-2.609072E-1,-1.4167276E-1,-8.331612E-3,3.9167184E-2,2.394E-1,-7.201093E-1,-2.041109E-1,-3.1113166E-1,-2.3839535E-2,2.2657856E-1,-1.3781931E-2,-2.5431408E-2,6.004196E-2,-1.2968406E-1,3.7662452E-1,-7.532968E-1,-0E0,-3.6084153E-2,-3.984594E-1,-2.0977394E-1,-7.0618296E-1,1.7752734E-1,-2.8898066E-1,4.948789E-2,4.0768114E-1,-2.8290467E-2,6.945165E-2,-1.429593E-1,2.5160143E-2,8.510274E-2,-2.0468112E-2,-5.6038946E-1,-1.7637782E-2,6.9056964E-1,2.8479522E-1,-7.762394E-1,-0E0,8.758503E-2,-7.014266E-1,-1.6746998E-1,-5.2126974E-1,-5.654179E-1,-1.3240772E-1,-8.0680114E-1,-0E0,-5.1428314E-2,5.8707577E-1,-4.84123E-1,3.4932956E-2,2.1262331E-1,-5.138436E-2,5.4850423E-1,7.195001E-3,-1.9214217E-2,-4.964126E-1,3.035502E-1,2.3280047E-2,-2.5115284E-1,-2.0278525E-2,-1.5027442E-2,8.581434E-2,7.150425E-2,2.5599673E-1,-1.911902E-1,9.82478E-3,-0E0,-6.19632E-1,1.04644805E-1,-4.594126E-1,7.6053226E-1,-0E0,7.679846E-2,4.9055368E-1,-0E0,-7.934894E-1,-1.6565116E-1,2.7788332E-1,-7.2791857E-1,-0E0,-3.7731522E-1,-0E0,-0E0,-5.379331E-1,-6.888058E-1,-0E0,-3.438987E-1,5.670219E-2,-0E0,-8.2615453E-1,-1.20536245E-1,3.7133768E-1,1.420123E-1,9.3318784E-1,-2.0051001E-1,-8.3851254E-1,-1.4648494E-1,3.2540494E-1,-1.0345096E-1,3.0864528E-1,-1.2531494E-1,2.3119316E-1,7.2581255E-1,8.6523294E-2,7.0424065E-2,-3.162313E-2,-1.0592059E0,-3.175058E-1,-3.1002322E-1,3.4328008E-1,-6.273134E-2,1.1023391E-1,-4.1741633E-1,-1.0389802E-1,5.4407615E-2,-1.8818545E-1,-1.0203956E-1,9.239072E-2,1.22618444E-1,-1.0712596E-1,6.2554345E-2,2.9959118E-1,-4.8422612E-2,2.7826133E-1,-3.0211127E-1,-0E0,4.5473877E-2,-1.6593736E-1,-0E0,-6.8355787E-1,5.1498884E-1,1.2513138E-2,-8.280803E-1,-0E0,1.234143E-1,9.113821E-1,-4.2518815E-1,3.2283303E-1,2.4849482E-1,9.1865593E-1,-0E0,-8.215544E-1,1.2918903E-1,-5.52868E-1,4.02257E-1,-1.8575945E-1,-7.81375E-1,-0E0,-4.1002652E-1,-0E0,-1.09452784E-1,2.1808887E-1,-6.094711E-1,-1.7051995E-1,-0E0,-7.164887E-1,-4.1285536E-1,-0E0,-2.276168E-1,5.474838E-1,-0E0,-8.504159E-1,-7.6014185E-3,-4.50786E-1,4.6368638E-1,-0E0,-4.1166097E-2,6.427933E-1,1.1935503E0,3.7518105E-1,-4.4536048E-1,3.9824706E-1,-0E0,-8.5557145E-1,2.8718123E-1,-3.9758065E-1,7.942364E-1,-8.360051E-3,3.875501E-1,-0E0,-0E0,-2.1915276E-1,-0E0,3.589672E-1,-0E0,7.529572E-1,2.4655753E-1,-0E0,-2.9340687E-1,9.934638E-2,-2.8893474E-1,-2.0861994E-2,-0E0,-1.0750629E0,-3.9454725E-2,-9.369766E-1,3.8527948E-1,-8.772226E-2,-1.0004564E-1,2.4079141E-1,6.0208595E-1,3.4605637E-2,-5.318564E-1,-2.0664236E-2,2.55371E-2,-1.8856621E-1,2.3316781E-1,-1.2948778E-3,-3.247858E-1,-0E0,-2.5054058E-1,-3.5251565E-3,3.116388E-1,-4.202811E-3,2.9285783E-2,2.4760674E-1,-2.6116335E-1,-0E0,-9.537826E-2,7.10417E-2,4.1605377E-1,-7.428227E-2,3.779726E-1,8.4353894E-2,-3.4812364E-1,-0E0,1.3181692E-1,-8.630589E-2,-6.405007E-2,8.83647E-2,-2.9073673E-1,-0E0,-7.122496E-1,-0E0,6.0996395E-1,-0E0,-2.895586E-1,1.0946141E-1,-8.6660403E-1,-0E0,1.5731989E-1,-3.4729925E-1,-0E0,2.8414991E-1,-0E0,9.524331E-1,-0E0,-5.476031E-1,3.7420595E-1,-1.0679307E-1,4.2053215E-2,7.605125E-1,9.733325E-1,-0E0,4.0633595E-1,-4.7558072E-1,-0E0,-7.915162E-1,6.629841E-1,-0E0,-3.3396244E-1,-0E0,-8.148313E-1,-0E0,-4.3843168E-1,-0E0,-0E0,-2.3639251E-1,3.1301293E-1,-0E0,-0E0,-6.226184E-1,-0E0,-2.6359478E-1,-0E0,-7.3543733E-1,-1.8202983E-1,-6.2920564E-1,-1.2189296E-1,3.0414286E-1,-4.3749318E-2,-5.525393E-1,8.336759E-1,1.2050893E-1,-8.603679E-1,-0E0,-2.3509856E-1,1.774075E-1,-6.003619E-1,-0E0,5.3316694E-1,-0E0,4.1042107E-1,-2.5965813E-1,-0E0,9.502443E-1,1.2894727E0,-0E0,-7.009081E-4,6.42655E-1,-6.627421E-1,-4.5844436E-2,-0E0,8.984312E-1,-8.666723E-1,-0E0,-6.06246E-2,8.072551E-1,-0E0,-4.682666E-1,9.2237157E-1,-0E0,-3.8452575E-1,2.2398108E-1,4.6331868E-1,-0E0,-1.5047124E-1,2.9503173E-1,-5.25049E-1,-2.9420022E-2,-0E0,4.780224E-1,-0E0,7.902898E-1,-0E0,3.459906E-1,-0E0,-3.5359606E-1,1.1937544E-1,-1.1809024E-1,-5.2536136E-1,-0E0,5.2923426E-2,-4.2389303E-2,6.685713E-1,-1.4409292E-1,-0E0,-9.5575094E-1,2.3682676E-1,6.211288E-1,-1.683767E-1,6.7832634E-2,-0E0,3.2756338E-1,3.117475E-1,1.0187808E0,-0E0,4.4889155E-1],"categories":[],"categories_nodes":[],"categories_segments":[],"categories_sizes":[],"default_left":[0,0,0,0,0,0,0,0,0,0,0,0,0,0,0,0,0,0,0,0,0,0,0,0,0,0,0,0,0,0,0,0,0,0,0,0,0,0,0,0,0,0,0,0,0,0,0,0,0,0,0,0,0,0,0,0,0,0,0,0,0,0,0,0,0,0,0,0,0,0,0,0,0,0,0,0,0,0,0,0,0,0,0,0,0,0,0,0,0,0,0,0,0,0,0,0,0,0,0,0,0,0,0,0,0,0,0,0,0,0,0,0,0,0,0,0,0,0,0,0,0,0,0,0,0,0,0,0,0,0,0,0,0,0,0,0,0,0,0,0,0,0,0,0,0,0,0,0,0,0,0,0,0,0,0,0,0,0,0,0,0,0,0,0,0,0,0,0,0,0,0,0,0,0,0,0,0,0,0,0,0,0,0,0,0,0,0,0,0,0,0,0,0,0,0,0,0,0,0,0,0,0,0,0,0,0,0,0,0,0,0,0,0,0,0,0,0,0,0,0,0,0,0,0,0,0,0,0,0,0,0,0,0,0,0,0,0,0,0,0,0,0,0,0,0,0,0,0,0,0,0,0,0,0,0,0,0,0,0,0,0,0,0,0,0,0,0,0,0,0,0,0,0,0,0,0,0,0,0,0,0,0,0,0,0,0,0,0,0,0,0,0,0,0,0,0,0,0,0,0,0,0,0,0,0,0,0,0,0,0,0,0,0,0,0,0,0,0,0,0,0,0,0,0,0,0,0,0,0,0,0,0,0,0,0,0,0,0,0,0,0,0,0,0,0,0,0,0,0,0,0],"id":9,"left_children":[1,3,5,7,9,11,13,15,17,19,21,23,25,27,29,31,33,35,37,39,-1,41,43,45,47,49,51,53,55,57,59,61,63,65,67,69,71,73,75,77,-1,79,81,83,85,87,89,91,-1,93,95,97,99,101,103,105,-1,107,109,111,113,115,117,119,121,123,125,127,129,-1,131,133,135,137,-1,139,141,-1,143,145,147,149,-1,151,153,-1,155,157,-1,159,161,-1,163,165,167,169,171,173,175,177,179,-1,181,183,185,187,189,191,193,195,197,-1,199,201,203,205,207,209,211,213,215,217,219,221,223,-1,225,227,229,231,233,-1,235,237,239,241,243,245,247,249,251,253,255,-1,-1,257,259,261,263,265,-1,267,-1,269,271,273,275,-1,277,279,281,283,285,-1,287,289,291,293,-1,295,297,299,301,303,305,-1,307,309,311,313,315,317,-1,319,321,-1,323,-1,325,327,-1,329,331,333,335,-1,-1,337,339,341,-1,343,345,347,349,-1,-1,-1,-1,-1,-1,-1,-1,-1,-1,-1,-1,-1,-1,-1,-1,-1,-1,-1,-1,-1,-1,-1,-1,-1,-1,-1,-1,-1,-1,-1,-1,-1,-1,-1,-1,-1,-1,-1,-1,-1,-1,-1,-1,-1,-1,-1,-1,-1,-1,-1,-1,-1,-1,-1,-1,-1,-1,-1,-1,-1,-1,-1,-1,-1,-1,-1,-1,-1,-1,-1,-1,-1,-1,-1,-1,-1,-1,-1,-1,-1,-1,-1,-1,-1,-1,-1,-1,-1,-1,-1,-1,-1,-1,-1,-1,-1,-1,-1,-1,-1,-1,-1,-1,-1,-1,-1,-1,-1,-1,-1,-1,-1,-1,-1,-1,-1,-1,-1,-1,-1,-1,-1,-1,-1,-1,-1,-1,-1,-1,-1,-1,-1,-1,-1,-1,-1,-1,-1,-1,-1,-1,-1,-1,-1,-1],"loss_changes":[4.5331066E1,1.9636784E2,7.2131744E1,8.228434E1,4.3053543E1,8.657984E1,5.311513E1,2.5637434E1,1.2171297E2,5.785721E0,5.6508842E1,6.195778E1,1.4601375E2,2.5271484E1,5.0564003E1,2.7779224E1,2.9488403E1,2.4195007E1,3.8199417E1,4.1274414E0,0E0,9.235827E1,1.5998459E1,3.2919594E1,1.678984E1,1.4835284E2,8.0041855E1,1.0162667E1,1.8872154E1,1.4788385E2,6.3286453E1,1.5889812E1,8.209769E0,2.2085358E1,1.8923063E1,6.267021E0,3.229681E1,2.1354446E1,5.306797E1,3.5726013E0,0E0,4.367857E1,4.58535E0,1.135644E1,5.062729E0,1.971003E1,5.3039482E1,6.3455505E0,0E0,2.62687E1,7.451697E1,6.4732605E1,2.5368769E1,9.528161E0,5.229565E0,1.6017715E1,0E0,3.8996754E1,4.9742264E1,2.5260918E1,3.939843E1,1.155584E1,1.0379236E1,1.6615694E1,9.695479E0,1.711409E1,7.5306015E0,1.3624956E1,1.6204533E1,0E0,6.756069E0,9.792445E0,1.9352442E1,2.0617813E1,0E0,8.964016E1,5.530841E1,0E0,3.6429138E0,4.588086E1,3.3187756E1,5.2427444E0,0E0,3.0769043E0,4.863074E0,0E0,4.3018646E0,4.368782E0,0E0,1.6494934E1,9.4204254E1,0E0,5.8580933E0,2.7504602E1,4.154705E0,3.1081114E1,2.368039E1,6.869775E1,6.6118164E0,3.0075096E1,3.8101112E1,0E0,6.1734753E0,4.9165945E0,2.1311533E0,6.1922226E0,2.5299113E0,4.2633797E1,8.320487E1,2.6107635E0,8.1451614E1,0E0,2.0319717E1,2.7830292E1,9.180716E1,7.7503967E0,6.2574334E0,6.9012256E0,8.5311165E0,1.2475753E1,1.8764416E1,1.0701902E1,4.9649243E0,1.3117928E1,1.862561E1,0E0,9.228771E0,7.705509E0,2.5694838E0,1.136291E1,7.1788635E0,0E0,2.4976692E0,3.3633995E0,8.971328E0,2.8942375E0,5.3110247E0,3.497479E0,9.616547E0,1.1128376E1,1.4202629E1,3.9812424E1,1.3624878E1,0E0,0E0,3.4255222E1,2.0798168E1,4.2634598E1,3.7532752E0,5.424164E0,0E0,2.8664398E0,0E0,3.3404045E0,2.6225808E0,4.065811E0,3.2605917E0,0E0,3.7488098E0,1.6926872E1,4.978524E0,1.7779884E1,2.0222137E1,0E0,3.314087E0,2.9384539E1,1.3922855E1,4.898205E0,0E0,1.8573927E1,1.290918E1,1.3356964E1,1.8772064E1,2.1989998E1,2.9857567E1,0E0,4.4094543E0,2.3315918E1,6.512064E0,1.2639587E1,1.2087929E1,5.5998917E0,0E0,5.385088E0,5.2166157E0,0E0,2.2468815E0,0E0,4.593048E0,2.5640466E0,0E0,8.083498E0,1.7274864E1,8.715314E1,4.7546463E1,0E0,0E0,2.4506708E1,3.6757812E0,2.0727112E1,0E0,2.7691448E1,5.843173E0,2.3956703E1,3.2388294E1,0E0,0E0,0E0,0E0,0E0,0E0,0E0,0E0,0E0,0E0,0E0,0E0,0E0,0E0,0E0,0E0,0E0,0E0,0E0,0E0,0E0,0E0,0E0,0E0,0E0,0E0,0E0,0E0,0E0,0E0,0E0,0E0,0E0,0E0,0E0,0E0,0E0,0E0,0E0,0E0,0E0,0E0,0E0,0E0,0E0,0E0,0E0,0E0,0E0,0E0,0E0,0E0,0E0,0E0,0E0,0E0,0E0,0E0,0E0,0E0,0E0,0E0,0E0,0E0,0E0,0E0,0E0,0E0,0E0,0E0,0E0,0E0,0E0,0E0,0E0,0E0,0E0,0E0,0E0,0E0,0E0,0E0,0E0,0E0,0E0,0E0,0E0,0E0,0E0,0E0,0E0,0E0,0E0,0E0,0E0,0E0,0E0,0E0,0E0,0E0,0E0,0E0,0E0,0E0,0E0,0E0,0E0,0E0,0E0,0E0,0E0,0E0,0E0,0E0,0E0,0E0,0E0,0E0,0E0,0E0,0E0,0E0,0E0,0E0,0E0,0E0,0E0,0E0,0E0,0E0,0E0,0E0,0E0,0E0,0E0,0E0,0E0,0E0,0E0,0E0,0E0,0E0,0E0,0E0,0E0,0E0],"parents":[2147483647,0,0,1,1,2,2,3,3,4,4,5,5,6,6,7,7,8,8,9,9,10,10,11,11,12,12,13,13,14,14,15,15,16,16,17,17,18,18,19,19,21,21,22,22,23,23,24,24,25,25,26,26,27,27,28,28,29,29,30,30,31,31,32,32,33,33,34,34,35,35,36,36,37,37,38,38,39,39,41,41,42,42,43,43,44,44,45,45,46,46,47,47,49,49,50,50,51,51,52,52,53,53,54,54,55,55,57,57,58,58,59,59,60,60,61,61,62,62,63,63,64,64,65,65,66,66,67,67,68,68,70,70,71,71,72,72,73,73,75,75,76,76,78,78,79,79,80,80,81,81,83,83,84,84,86,86,87,87,89,89,90,90,92,92,93,93,94,94,95,95,96,96,97,97,98,98,99,99,100,100,102,102,103,103,104,104,105,105,106,106,107,107,108,108,109,109,110,110,112,112,113,113,114,114,115,115,116,116,117,117,118,118,119,119,120,120,121,121,122,122,123,123,124,124,126,126,127,127,128,